{"learner":{"attributes":{"best_iteration":"109","best_ntree_limit":"110","scikit_learn":"{\"n_estimators\": 110, \"objective\": \"reg:squarederror\", \"max_depth\": 3, \"max_leaves\": null, \"max_bin\": null, \"grow_policy\": null, \"learning_rate\": 0.03, \"verbosity\": null, \"booster\": null, \"tree_method\": null, \"gamma\": 3, \"min_child_weight\": 1, \"max_delta_step\": null, \"subsample\": 0.8, \"sampling_method\": null, \"colsample_bytree\": 0.8, \"colsample_bylevel\": null, \"colsample_bynode\": null, \"reg_alpha\": null, \"reg_lambda\": 1.5, \"scale_pos_weight\": 1, \"base_score\": null, \"missing\": NaN, \"num_parallel_tree\": null, \"random_state\": null, \"n_jobs\": null, \"monotone_constraints\": null, \"interaction_constraints\": null, \"importance_type\": null, \"gpu_id\": null, \"validate_parameters\": null, \"predictor\": null, \"enable_categorical\": false, \"feature_types\": null, \"max_cat_to_onehot\": null, \"max_cat_threshold\": null, \"eval_metric\": null, \"early_stopping_rounds\": null, \"callbacks\": null, \"kwargs\": {\"alpha\": 20, \"seed\": 0}, \"_estimator_type\": \"regressor\"}"},"feature_names":[],"feature_types":[],"gradient_booster":{"model":{"gbtree_model_param":{"num_parallel_tree":"1","num_trees":"110","size_leaf_vector":"0"},"tree_info":[0,0,0,0,0,0,0,0,0,0,0,0,0,0,0,0,0,0,0,0,0,0,0,0,0,0,0,0,0,0,0,0,0,0,0,0,0,0,0,0,0,0,0,0,0,0,0,0,0,0,0,0,0,0,0,0,0,0,0,0,0,0,0,0,0,0,0,0,0,0,0,0,0,0,0,0,0,0,0,0,0,0,0,0,0,0,0,0,0,0,0,0,0,0,0,0,0,0,0,0,0,0,0,0,0,0,0,0,0,0],"trees":[{"base_weights":[4.8603374E1,3.567547E1,5.234586E1,2.6020763E1,3.923026E1,4.9320454E1,5.562923E1,4.1018036E1,2.0575813E1,5.5720367E1,2.130169E0],"categories":[],"categories_nodes":[],"categories_segments":[],"categories_sizes":[],"default_left":[1,1,1,0,1,0,1,0,0,0,0],"id":0,"left_children":[1,3,5,-1,7,-1,9,-1,-1,-1,-1],"loss_changes":[4.103875E4,4.6284688E3,1.00225E3,0E0,2.6547188E3,0E0,2.91125E2,0E0,0E0,0E0,0E0],"parents":[2147483647,0,0,1,1,2,2,4,4,6,6],"right_children":[2,4,6,-1,8,-1,10,-1,-1,-1,-1],"split_conditions":[7.152147E-1,4.6015275E-1,1.2468125E0,7.806229E-1,1.1003568E0,1.4796135E0,3.7527654E0,1.230541E0,6.172744E-1,1.671611E0,6.390507E-2],"split_indices":[7,7,22,0,15,0,0,0,0,0,0],"split_type":[0,0,0,0,0,0,0,0,0,0,0],"sum_hessian":[9.41E2,2.16E2,7.25E2,6.3E1,1.53E2,3.93E2,3.32E2,1.37E2,1.6E1,3.31E2,1E0],"tree_param":{"num_deleted":"0","num_feature":"24","num_nodes":"11","size_leaf_vector":"0"}},{"base_weights":[4.714385E1,3.2964947E1,5.0753918E1,2.4058876E1,3.6785767E1,4.784565E1,5.4169014E1,3.858708E1,1.9183634E1,1.7305145E-1,5.4270782E1],"categories":[],"categories_nodes":[],"categories_segments":[],"categories_sizes":[],"default_left":[1,1,1,0,1,0,1,0,0,0,0],"id":1,"left_children":[1,3,5,-1,7,-1,9,-1,-1,-1,-1],"loss_changes":[4.452025E4,4.2102188E3,1.56575E3,0E0,1.9987969E3,0E0,7.24125E2,0E0,0E0,0E0,0E0],"parents":[2147483647,0,0,1,1,2,2,4,4,6,6],"right_children":[2,4,6,-1,8,-1,10,-1,-1,-1,-1],"split_conditions":[7.013221E-1,4.6334025E-1,1.3759806E0,7.217663E-1,1.0980272E0,1.4353695E0,2.9736885E-1,1.1576123E0,5.75509E-1,5.191543E-3,1.6281234E0],"split_indices":[7,7,21,0,15,0,9,0,0,0,0],"split_type":[0,0,0,0,0,0,0,0,0,0,0],"sum_hessian":[9.5E2,1.97E2,7.53E2,6.4E1,1.33E2,4.22E2,3.31E2,1.18E2,1.5E1,1E0,3.3E2],"tree_param":{"num_deleted":"0","num_feature":"24","num_nodes":"11","size_leaf_vector":"0"}},{"base_weights":[4.569277E1,3.1307655E1,4.8696438E1,3.4248817E1,2.2056145E1,4.3614895E1,5.043833E1,-0E0,3.441881E1,4.3813374E1,7.271566E0,-0E0,5.0492332E1],"categories":[],"categories_nodes":[],"categories_segments":[],"categories_sizes":[],"default_left":[1,1,1,1,0,1,1,0,0,0,0,0,0],"id":2,"left_children":[1,3,5,7,-1,9,11,-1,-1,-1,-1,-1,-1],"loss_changes":[3.6923125E4,2.3257188E3,1.701E3,2.5695312E2,0E0,3.325E1,5.38125E2,0E0,0E0,0E0,0E0,0E0,0E0],"parents":[2147483647,0,0,1,1,2,2,3,3,5,5,6,6],"right_children":[2,4,6,8,-1,10,12,-1,-1,-1,-1,-1,-1],"split_conditions":[6.532207E-1,8.956285E-1,8.419976E-1,6.078767E-2,6.6168433E-1,4.2357635E0,2.4088074E-2,-0E0,1.0325643E0,1.3144011E0,2.1814698E-1,-0E0,1.5147699E0],"split_indices":[7,15,11,11,0,23,17,0,0,0,0,0,0],"split_type":[0,0,0,0,0,0,0,0,0,0,0,0,0],"sum_hessian":[9.43E2,1.67E2,7.76E2,1.22E2,4.5E1,2.11E2,5.65E2,1E0,1.21E2,2.09E2,2E0,1E0,5.64E2],"tree_param":{"num_deleted":"0","num_feature":"24","num_nodes":"13","size_leaf_vector":"0"}},{"base_weights":[4.4402912E1,3.2661697E1,4.772256E1,2.4485247E1,3.7364697E1,4.2714752E1,4.9639812E1,2.7891447E1,1.755548E1,3.7931393E1,1.0503949E1,4.977149E1,1.3740104E1],"categories":[],"categories_nodes":[],"categories_segments":[],"categories_sizes":[],"default_left":[1,1,1,1,1,0,1,0,0,0,0,0,0],"id":3,"left_children":[1,3,5,7,9,-1,11,-1,-1,-1,-1,-1,-1],"loss_changes":[3.2555875E4,5.562125E3,1.938E3,3.2753906E2,4.2010938E2,0E0,1.26625E2,0E0,0E0,0E0,0E0,0E0,0E0],"parents":[2147483647,0,0,1,1,2,2,3,3,4,4,6,6],"right_children":[2,4,6,8,10,-1,12,-1,-1,-1,-1,-1,-1],"split_conditions":[7.1475744E-1,2.3336008E-1,9.2291975E-1,9.765455E-1,1.1576021E0,1.2814425E0,2.5073414E0,8.367434E-1,5.266644E-1,1.1379417E0,3.1511846E-1,1.4931446E0,4.122031E-1],"split_indices":[7,11,7,15,15,0,13,0,0,0,0,0,0],"split_type":[0,0,0,0,0,0,0,0,0,0,0,0,0],"sum_hessian":[9.35E2,2.11E2,7.24E2,8.2E1,1.29E2,2.13E2,5.11E2,5E1,3.2E1,1.25E2,4E0,5.08E2,3E0],"tree_param":{"num_deleted":"0","num_feature":"24","num_nodes":"13","size_leaf_vector":"0"}},{"base_weights":[4.313834E1,3.0627455E1,4.6292454E1,2.3006483E1,3.471936E1,4.3663998E1,4.9615612E1,3.5007973E1,4.023908E0,4.376343E1,6.7789397E0,-0E0,4.9712025E1],"categories":[],"categories_nodes":[],"categories_segments":[],"categories_sizes":[],"default_left":[1,1,1,0,1,1,1,0,0,0,0,0,0],"id":4,"left_children":[1,3,5,-1,7,9,11,-1,-1,-1,-1,-1,-1],"loss_changes":[3.4118375E4,3.8374062E3,1.52775E3,0E0,1.11015625E2,1.596875E2,6.074375E2,0E0,0E0,0E0,0E0,0E0,0E0],"parents":[2147483647,0,0,1,1,2,2,4,4,5,5,6,6],"right_children":[2,4,6,-1,8,10,12,-1,-1,-1,-1,-1,-1],"split_conditions":[7.014307E-1,2.1592507E-1,1.3759806E0,6.901945E-1,1.4589218E0,2.4515917E0,4.4729435E-1,1.0502392E0,1.2071724E-1,1.3129029E0,2.0336819E-1,-0E0,1.4913607E0],"split_indices":[7,11,21,0,14,13,10,0,0,0,0,0,0],"split_type":[0,0,0,0,0,0,0,0,0,0,0,0,0],"sum_hessian":[9.56E2,1.97E2,7.59E2,7.4E1,1.23E2,4.39E2,3.2E2,1.21E2,2E0,4.37E2,2E0,1E0,3.19E2],"tree_param":{"num_deleted":"0","num_feature":"24","num_nodes":"13","size_leaf_vector":"0"}},{"base_weights":[4.168406E1,2.4435293E1,4.361787E1,3.0395502E1,1.997604E1,3.853588E1,4.6071255E1,-0E0,3.0809786E1,-0E0,4.6117237E1],"categories":[],"categories_nodes":[],"categories_segments":[],"categories_sizes":[],"default_left":[1,1,1,1,0,0,1,0,0,0,0],"id":5,"left_children":[1,3,5,7,-1,-1,9,-1,-1,-1,-1],"loss_changes":[2.9812375E4,8.326289E2,6.623E3,5.2339844E1,0E0,0E0,3.4675E2,0E0,0E0,0E0,0E0],"parents":[2147483647,0,0,1,1,2,2,3,3,6,6],"right_children":[2,4,6,8,-1,-1,10,-1,-1,-1,-1],"split_conditions":[2.3336008E-1,6.8308914E-1,8.444351E-1,4.9616825E-3,5.992812E-1,1.1560764E0,2.4088074E-2,-0E0,9.242936E-1,-0E0,1.383517E0],"split_indices":[11,14,11,2,0,0,17,0,0,0,0],"split_type":[0,0,0,0,0,0,0,0,0,0,0],"sum_hessian":[9.81E2,1.02E2,8.79E2,3.8E1,6.4E1,2.97E2,5.82E2,1E0,3.7E1,1E0,5.81E2],"tree_param":{"num_deleted":"0","num_feature":"24","num_nodes":"11","size_leaf_vector":"0"}},{"base_weights":[4.0499893E1,2.680806E1,4.310921E1,2.2646908E1,3.310623E1,4.0394592E1,4.659098E1,2.6659672E1,1.7586176E1,4.0479145E1,6.2674384E0,4.666937E1,1.4793244E-1],"categories":[],"categories_nodes":[],"categories_segments":[],"categories_sizes":[],"default_left":[1,1,1,1,0,1,1,0,0,0,0,0,0],"id":6,"left_children":[1,3,5,7,-1,9,11,-1,-1,-1,-1,-1,-1],"loss_changes":[3.086175E4,1.8880156E3,2.956125E3,4.7303125E2,0E0,1.63125E1,2.746875E2,0E0,0E0,0E0,0E0,0E0,0E0],"parents":[2147483647,0,0,1,1,2,2,3,3,5,5,6,6],"right_children":[2,4,6,8,-1,10,12,-1,-1,-1,-1,-1,-1],"split_conditions":[6.291944E-1,2.6162392E-1,1.3186061E0,7.408831E-1,9.9318695E-1,2.4515917E0,3.5515976E0,7.9979014E-1,5.2758527E-1,1.2143743E0,1.8802315E-1,1.400081E0,4.4379733E-3],"split_indices":[7,11,21,13,0,13,16,0,0,0,0,0,0],"split_type":[0,0,0,0,0,0,0,0,0,0,0,0,0],"sum_hessian":[9.5E2,1.56E2,7.94E2,1E2,5.6E1,4.6E2,3.34E2,5E1,5E1,4.58E2,2E0,3.33E2,1E0],"tree_param":{"num_deleted":"0","num_feature":"24","num_nodes":"13","size_leaf_vector":"0"}},{"base_weights":[3.9532738E1,2.6835642E1,4.191303E1,3.0271868E1,1.996118E1,3.6926132E1,4.3668167E1,-0E0,3.0431257E1,3.7018635E1,-0E0,-0E0,4.3709637E1],"categories":[],"categories_nodes":[],"categories_segments":[],"categories_sizes":[],"default_left":[1,1,1,1,0,1,1,0,0,0,0,0,0],"id":7,"left_children":[1,3,5,7,-1,9,11,-1,-1,-1,-1,-1,-1],"loss_changes":[2.6420125E4,1.8566797E3,3.124875E3,5.6E1,0E0,1.72E2,2.4E2,0E0,0E0,0E0,0E0,0E0,0E0],"parents":[2147483647,0,0,1,1,2,2,3,3,5,5,6,6],"right_children":[2,4,6,8,-1,10,12,-1,-1,-1,-1,-1,-1],"split_conditions":[6.2888825E-1,7.9327494E-1,8.3864295E-1,1.9993389E-1,5.9883535E-1,8.376477E-1,2.4088074E-2,-0E0,9.129377E-1,1.110559E0,-0E0,-0E0,1.3112891E0],"split_indices":[7,14,11,5,0,11,17,0,0,0,0,0,0],"split_type":[0,0,0,0,0,0,0,0,0,0,0,0,0],"sum_hessian":[9.74E2,1.58E2,8.16E2,1E2,5.8E1,2.24E2,5.92E2,1E0,9.9E1,2.23E2,1E0,1E0,5.91E2],"tree_param":{"num_deleted":"0","num_feature":"24","num_nodes":"13","size_leaf_vector":"0"}},{"base_weights":[3.8063786E1,2.8061602E1,4.1163704E1,3.0517857E1,1.8533276E1,4.12008E1,-0E0,1.0910426E0,3.0733606E1,3.8822807E1,4.3887753E1],"categories":[],"categories_nodes":[],"categories_segments":[],"categories_sizes":[],"default_left":[1,1,1,1,0,1,0,0,0,0,0],"id":8,"left_children":[1,3,5,7,-1,9,-1,-1,-1,-1,-1],"loss_changes":[2.548575E4,3.4247812E3,4.39875E2,4.2107812E2,0E0,2.53125E2,0E0,0E0,0E0,0E0,0E0],"parents":[2147483647,0,0,1,1,2,2,3,3,5,5],"right_children":[2,4,6,8,-1,10,-1,-1,-1,-1,-1],"split_conditions":[7.1781874E-1,9.1614276E-1,3.7527654E0,2.6217115E-1,5.5599827E-1,1.3680863E0,-0E0,3.273128E-2,9.2200816E-1,1.1646842E0,1.3166325E0],"split_indices":[7,15,0,6,0,21,0,0,0,0,0],"split_type":[0,0,0,0,0,0,0,0,0,0,0],"sum_hessian":[9.21E2,2.23E2,6.98E2,1.73E2,5E1,6.97E2,1E0,2E0,1.71E2,3.86E2,3.11E2],"tree_param":{"num_deleted":"0","num_feature":"24","num_nodes":"11","size_leaf_vector":"0"}},{"base_weights":[3.6723003E1,2.528691E1,3.9300224E1,2.8494778E1,1.7870594E1,3.691617E1,4.240882E1,-0E0,2.8622742E1,3.6997326E1,5.119809E0,-0E0,4.249647E1],"categories":[],"categories_nodes":[],"categories_segments":[],"categories_sizes":[],"default_left":[1,1,1,1,0,1,1,0,0,0,0,0,0],"id":9,"left_children":[1,3,5,7,-1,9,11,-1,-1,-1,-1,-1,-1],"loss_changes":[2.47605E4,2.5316875E3,1.686375E3,5.415625E1,0E0,2.0625E1,5.42E2,0E0,0E0,0E0,0E0,0E0,0E0],"parents":[2147483647,0,0,1,1,2,2,3,3,5,5,6,6],"right_children":[2,4,6,8,-1,10,12,-1,-1,-1,-1,-1,-1],"split_conditions":[6.585042E-1,7.9327494E-1,1.3928897E0,6.551086E-2,5.361178E-1,2.4515917E0,2.9736885E-1,-0E0,8.586822E-1,1.1099198E0,1.5359427E-1,-0E0,1.2748941E0],"split_indices":[7,14,21,11,0,13,9,0,0,0,0,0,0],"split_type":[0,0,0,0,0,0,0,0,0,0,0,0,0],"sum_hessian":[9.33E2,1.76E2,7.57E2,1.18E2,5.8E1,4.43E2,3.14E2,1E0,1.17E2,4.41E2,2E0,1E0,3.13E2],"tree_param":{"num_deleted":"0","num_feature":"24","num_nodes":"13","size_leaf_vector":"0"}},{"base_weights":[3.6091347E1,2.5669443E1,3.880155E1,1.795669E1,2.845972E1,3.947282E1,3.0602854E1,1.847953E1,9.621247E-1,2.9549929E1,1.432443E1,3.0860634E1,-0E0],"categories":[],"categories_nodes":[],"categories_segments":[],"categories_sizes":[],"default_left":[1,1,1,1,1,0,1,0,0,0,0,0,0],"id":10,"left_children":[1,3,5,7,9,-1,11,-1,-1,-1,-1,-1,-1],"loss_changes":[2.3979125E4,2.6415312E3,9.005E2,1.1318164E2,6.9897656E2,0E0,8.540625E1,0E0,0E0,0E0,0E0,0E0,0E0],"parents":[2147483647,0,0,1,1,2,2,3,3,4,4,6,6],"right_children":[2,4,6,8,10,-1,12,-1,-1,-1,-1,-1,-1],"split_conditions":[7.0179355E-1,4.6334025E-1,1.4110411E0,1.2231836E0,1.1100552E0,1.1841846E0,3.4647398E0,5.543859E-1,2.8863741E-2,8.8649786E-1,4.2973292E-1,9.25819E-1,-0E0],"split_indices":[7,7,19,15,15,0,0,0,0,0,0,0,0],"split_type":[0,0,0,0,0,0,0,0,0,0,0,0,0],"sum_hessian":[9.46E2,2E2,7.46E2,5.8E1,1.42E2,6.82E2,6.4E1,5.5E1,3E0,1.29E2,1.3E1,6.3E1,1E0],"tree_param":{"num_deleted":"0","num_feature":"24","num_nodes":"13","size_leaf_vector":"0"}},{"base_weights":[3.4782024E1,2.2549131E1,3.702762E1,1.868557E1,2.8400475E1,3.4415863E1,3.978404E1,2.1533163E1,1.3817409E1,2.8758282E1,-0E0,-0E0,3.4457355E1,-0E0,3.985288E1],"categories":[],"categories_nodes":[],"categories_segments":[],"categories_sizes":[],"default_left":[1,1,1,1,1,1,1,0,0,0,0,0,0,0,0],"id":11,"left_children":[1,3,5,7,9,11,13,-1,-1,-1,-1,-1,-1,-1,-1],"loss_changes":[2.3996125E4,1.7550547E3,2.289875E3,2.2600781E2,3.284922E2,4.290625E1,4.9775E2,0E0,0E0,0E0,0E0,0E0,0E0,0E0,0E0],"parents":[2147483647,0,0,1,1,2,2,3,3,4,4,5,5,6,6],"right_children":[2,4,6,8,10,12,14,-1,-1,-1,-1,-1,-1,-1,-1],"split_conditions":[6.276022E-1,2.8560495E-1,9.8674107E-1,9.2480135E-1,1.2881541E0,8.474767E-2,2.9736885E-1,6.459949E-1,4.1452226E-1,8.6274844E-1,-0E0,-0E0,1.0337206E0,-0E0,1.1955863E0],"split_indices":[7,10,21,15,15,19,9,0,0,0,0,0,0,0,0],"split_type":[0,0,0,0,0,0,0,0,0,0,0,0,0,0,0],"sum_hessian":[9.61E2,1.53E2,8.08E2,9.8E1,5.5E1,4.29E2,3.79E2,5.6E1,4.2E1,5.4E1,1E0,1E0,4.28E2,1E0,3.78E2],"tree_param":{"num_deleted":"0","num_feature":"24","num_nodes":"15","size_leaf_vector":"0"}},{"base_weights":[3.397703E1,2.4702202E1,3.6596123E1,1.8832874E1,2.832873E1,3.7148678E1,2.7442217E1,2.3897797E1,1.4815052E1,2.9061293E1,8.128803E0,3.717875E1,-0E0,2.774452E1,-0E0],"categories":[],"categories_nodes":[],"categories_segments":[],"categories_sizes":[],"default_left":[1,1,1,1,1,1,1,0,0,0,0,0,0,0,0],"id":12,"left_children":[1,3,5,7,9,11,13,-1,-1,-1,-1,-1,-1,-1,-1],"loss_changes":[2.0385875E4,2.8221953E3,8.840625E2,4.9564258E2,7.885547E2,1.47625E2,5.6058594E1,0E0,0E0,0E0,0E0,0E0,0E0,0E0,0E0],"parents":[2147483647,0,0,1,1,2,2,3,3,4,4,5,5,6,6],"right_children":[2,4,6,8,10,12,14,-1,-1,-1,-1,-1,-1,-1,-1],"split_conditions":[7.009456E-1,2.3336008E-1,1.7843869E0,6.891555E-1,1.1576021E0,2.4249458E0,2.704711E0,7.169339E-1,4.4445154E-1,8.7183875E-1,2.4386409E-1,1.1153624E0,-0E0,8.323356E-1,-0E0],"split_indices":[6,11,19,14,15,13,0,0,0,0,0,0,0,0,0],"split_type":[0,0,0,0,0,0,0,0,0,0,0,0,0,0,0],"sum_hessian":[9.44E2,2.13E2,7.31E2,8.7E1,1.26E2,6.83E2,4.8E1,3.3E1,5.4E1,1.2E2,6E0,6.82E2,1E0,4.7E1,1E0],"tree_param":{"num_deleted":"0","num_feature":"24","num_nodes":"15","size_leaf_vector":"0"}},{"base_weights":[3.2925945E1,2.5060726E1,3.563834E1,1.9500156E1,2.8192514E1,3.6057335E1,2.3881529E1,2.4066784E1,1.4048706E1,3.324027E1,3.798264E1],"categories":[],"categories_nodes":[],"categories_segments":[],"categories_sizes":[],"default_left":[1,1,1,1,0,1,0,0,0,0,0],"id":13,"left_children":[1,3,5,7,-1,9,-1,-1,-1,-1,-1],"loss_changes":[1.7958562E4,2.6360938E3,1.0046875E3,1.1826602E3,0E0,3.725E2,0E0,0E0,0E0,0E0,0E0],"parents":[2147483647,0,0,1,1,2,2,3,3,5,5],"right_children":[2,4,6,8,-1,10,-1,-1,-1,-1,-1],"split_conditions":[4.8793042E-1,5.439844E-1,2.0784576E0,6.6576374E-1,8.457754E-1,9.8674107E-1,7.1644586E-1,7.220035E-1,4.2146116E-1,9.9720806E-1,1.1394792E0],"split_indices":[10,6,19,14,0,21,0,0,0,0,0],"split_type":[0,0,0,0,0,0,0,0,0,0,0],"sum_hessian":[9.6E2,2.52E2,7.08E2,9.7E1,1.55E2,6.79E2,2.9E1,4.8E1,4.9E1,2.91E2,3.88E2],"tree_param":{"num_deleted":"0","num_feature":"24","num_nodes":"11","size_leaf_vector":"0"}},{"base_weights":[3.1867468E1,2.4423128E1,3.4718357E1,1.5163023E1,2.6169006E1,3.4752247E1,-0E0,2.6996107E1,1.31650915E1,3.4808193E1,3.4901822E0],"categories":[],"categories_nodes":[],"categories_segments":[],"categories_sizes":[],"default_left":[1,1,1,0,1,1,0,0,0,0,0],"id":14,"left_children":[1,3,5,-1,7,9,-1,-1,-1,-1,-1],"loss_changes":[1.7356875E4,2.8705E3,3.685E2,0E0,1.0245156E3,2.209375E2,0E0,0E0,0E0,0E0,0E0],"parents":[2147483647,0,0,1,1,2,2,4,4,5,5],"right_children":[2,4,6,-1,8,10,-1,-1,-1,-1,-1],"split_conditions":[4.8712617E-1,4.162219E-1,3.7029886E0,4.5489067E-1,1.1008451E0,2.4515917E0,-0E0,8.098832E-1,3.9495274E-1,1.0442457E0,1.0470546E-1],"split_indices":[10,6,0,0,15,13,0,0,0,0,0],"split_type":[0,0,0,0,0,0,0,0,0,0,0],"sum_hessian":[9.32E2,2.64E2,6.68E2,4.6E1,2.18E2,6.67E2,1E0,2.02E2,1.6E1,6.65E2,2E0],"tree_param":{"num_deleted":"0","num_feature":"24","num_nodes":"11","size_leaf_vector":"0"}},{"base_weights":[3.0906963E1,1.7509323E1,3.229152E1,2.1746254E1,1.3434155E1,2.8190493E1,3.4486713E1,-0E0,2.2508635E1,2.824586E1,-0E0,3.480934E1,1.9590488E1],"categories":[],"categories_nodes":[],"categories_segments":[],"categories_sizes":[],"default_left":[1,1,1,1,0,1,1,0,0,0,0,0,0],"id":15,"left_children":[1,3,5,7,-1,9,11,-1,-1,-1,-1,-1,-1],"loss_changes":[1.59544375E4,4.8983203E2,5.088875E3,3.8689258E2,0E0,1.8176562E2,5.54E2,0E0,0E0,0E0,0E0,0E0,0E0],"parents":[2147483647,0,0,1,1,2,2,3,3,5,5,6,6],"right_children":[2,4,6,8,-1,10,12,-1,-1,-1,-1,-1,-1],"split_conditions":[2.3333485E-1,6.8308914E-1,9.1935253E-1,8.2679756E-2,4.0302464E-1,3.8220716E0,1.7972577E0,-0E0,6.75259E-1,8.4737575E-1,-0E0,1.0442802E0,5.877146E-1],"split_indices":[11,14,11,23,0,23,19,0,0,0,0,0,0],"split_type":[0,0,0,0,0,0,0,0,0,0,0,0,0],"sum_hessian":[9.58E2,9.3E1,8.65E2,4E1,5.3E1,3.12E2,5.53E2,2E0,3.8E1,3.11E2,1E0,5.38E2,1.5E1],"tree_param":{"num_deleted":"0","num_feature":"24","num_nodes":"13","size_leaf_vector":"0"}},{"base_weights":[2.9856707E1,2.1729263E1,3.218314E1,2.347303E1,1.1617275E1,3.2811756E1,2.4098316E1,2.3585352E1,-0E0,-0E0,2.4464783E1],"categories":[],"categories_nodes":[],"categories_segments":[],"categories_sizes":[],"default_left":[1,1,1,1,0,0,1,0,0,0,0],"id":16,"left_children":[1,3,5,7,-1,-1,9,-1,-1,-1,-1],"loss_changes":[1.57124375E4,2.7066875E3,1.3781875E3,4.0307812E2,0E0,0E0,4.7817578E2,0E0,0E0,0E0,0E0],"parents":[2147483647,0,0,1,1,2,2,3,3,6,6],"right_children":[2,4,6,8,-1,-1,10,-1,-1,-1,-1],"split_conditions":[7.1522635E-1,1.0053893E0,1.481714E0,2.0842235E0,3.4851825E-1,9.8435265E-1,6.174568E-1,7.0756054E-1,-0E0,-0E0,7.3394346E-1],"split_indices":[7,14,19,23,0,0,6,0,0,0,0],"split_type":[0,0,0,0,0,0,0,0,0,0,0],"sum_hessian":[9.42E2,2.15E2,7.27E2,1.8E2,3.5E1,6.68E2,5.9E1,1.79E2,1E0,1E0,5.8E1],"tree_param":{"num_deleted":"0","num_feature":"24","num_nodes":"11","size_leaf_vector":"0"}},{"base_weights":[2.8951612E1,2.1007982E1,3.1316166E1,1.3877386E1,2.3126358E1,2.9173151E1,3.3496223E1,1.4157281E1,-0E0,2.405458E1,1.0705016E1,-0E0,3.356739E1],"categories":[],"categories_nodes":[],"categories_segments":[],"categories_sizes":[],"default_left":[1,1,1,1,1,0,1,0,0,0,0,0,0],"id":17,"left_children":[1,3,5,7,9,-1,11,-1,-1,-1,-1,-1,-1],"loss_changes":[1.51626875E4,2.0488125E3,5.535E2,3.4637695E1,7.921406E2,0E0,4.601875E2,0E0,0E0,0E0,0E0,0E0,0E0],"parents":[2147483647,0,0,1,1,2,2,3,3,4,4,6,6],"right_children":[2,4,6,8,10,-1,12,-1,-1,-1,-1,-1,-1],"split_conditions":[7.1818036E-1,1.8996304E-1,1.15083E0,3.908708E-1,1.0906616E0,8.751945E-1,4.4729435E-1,4.247184E-1,-0E0,7.216374E-1,3.2115048E-1,-0E0,1.0070217E0],"split_indices":[7,11,22,21,15,0,10,0,0,0,0,0,0],"split_type":[0,0,0,0,0,0,0,0,0,0,0,0,0],"sum_hessian":[9.14E2,2.15E2,6.99E2,5.4E1,1.61E2,3.68E2,3.31E2,5.2E1,2E0,1.47E2,1.4E1,1E0,3.3E2],"tree_param":{"num_deleted":"0","num_feature":"24","num_nodes":"13","size_leaf_vector":"0"}},{"base_weights":[2.8446875E1,1.5799386E1,2.9788603E1,1.1967731E1,1.9507303E1,2.6432184E1,3.1759924E1,1.2117757E1,-0E0,-0E0,1.980805E1,2.7150265E1,1.8296085E1,3.1794714E1,-0E0],"categories":[],"categories_nodes":[],"categories_segments":[],"categories_sizes":[],"default_left":[1,1,1,1,1,1,1,0,0,0,0,0,0,0,0],"id":18,"left_children":[1,3,5,7,9,11,13,-1,-1,-1,-1,-1,-1,-1,-1],"loss_changes":[1.4460875E4,3.77125E2,3.2241875E3,4.6479004E1,1.2198047E2,2.6517188E2,1.531875E2,0E0,0E0,0E0,0E0,0E0,0E0,0E0,0E0],"parents":[2147483647,0,0,1,1,2,2,3,3,4,4,5,5,6,6],"right_children":[2,4,6,8,10,12,14,-1,-1,-1,-1,-1,-1,-1,-1],"split_conditions":[2.3336008E-1,2.4264753E-1,9.233827E-1,2.3849699E-1,6.9553438E-3,2.1668096E0,3.5688329E0,3.635327E-1,-0E0,-0E0,5.942415E-1,8.145079E-1,5.4888254E-1,9.538414E-1,-0E0],"split_indices":[11,19,7,19,2,19,13,0,0,0,0,0,0,0,0],"split_type":[0,0,0,0,0,0,0,0,0,0,0,0,0,0,0],"sum_hessian":[9.46E2,9.4E1,8.52E2,5.2E1,4.2E1,3.27E2,5.25E2,5.1E1,1E0,1E0,4.1E1,2.95E2,3.2E1,5.24E2,1E0],"tree_param":{"num_deleted":"0","num_feature":"24","num_nodes":"15","size_leaf_vector":"0"}},{"base_weights":[2.7568094E1,2.033003E1,2.9647608E1,1.5077414E1,2.298014E1,3.0176283E1,2.1536747E1,1.7187332E1,1.0117516E1,2.3397139E1,2.727372E0,3.024144E1,5.819832E0,2.2032124E1,-0E0],"categories":[],"categories_nodes":[],"categories_segments":[],"categories_sizes":[],"default_left":[1,1,1,1,1,1,1,0,0,0,0,0,0,0,0],"id":19,"left_children":[1,3,5,7,9,11,13,-1,-1,-1,-1,-1,-1,-1,-1],"loss_changes":[1.2433E4,1.7745625E3,1.1404375E3,3.549414E1,5.683672E2,9.95E1,1.6227734E2,0E0,0E0,0E0,0E0,0E0,0E0,0E0,0E0],"parents":[2147483647,0,0,1,1,2,2,3,3,4,4,5,5,6,6],"right_children":[2,4,6,8,10,12,14,-1,-1,-1,-1,-1,-1,-1,-1],"split_conditions":[7.1781874E-1,2.3333485E-1,1.7843869E0,9.870887E-1,1.2061512E0,2.5073414E0,5.995632E0,5.1561993E-1,3.0352545E-1,7.0191413E-1,8.182116E-2,9.072432E-1,1.7459495E-1,6.609637E-1,-0E0],"split_indices":[7,11,19,15,15,13,20,0,0,0,0,0,0,0,0],"split_type":[0,0,0,0,0,0,0,0,0,0,0,0,0,0,0],"sum_hessian":[9.51E2,2.18E2,7.33E2,7.9E1,1.39E2,6.82E2,5.1E1,5E1,2.9E1,1.35E2,4E0,6.79E2,3E0,4.9E1,2E0],"tree_param":{"num_deleted":"0","num_feature":"24","num_nodes":"15","size_leaf_vector":"0"}},{"base_weights":[2.6729591E1,1.8220284E1,2.8585983E1,2.0425743E1,1.144654E1,2.9105312E1,2.0300673E1,-0E0,2.0637045E1,1.1671312E1,-0E0,2.48499E1,3.0103155E1,2.0516483E1,-0E0],"categories":[],"categories_nodes":[],"categories_segments":[],"categories_sizes":[],"default_left":[1,1,1,1,1,1,1,0,0,0,0,0,0,0,0],"id":20,"left_children":[1,3,5,7,9,11,13,-1,-1,-1,-1,-1,-1,-1,-1],"loss_changes":[1.31393125E4,1.6187383E3,1.428E3,2.5450781E2,1.1579932E2,8.213125E2,4.1533203E1,0E0,0E0,0E0,0E0,0E0,0E0,0E0,0E0],"parents":[2147483647,0,0,1,1,2,2,3,3,4,4,5,5,6,6],"right_children":[2,4,6,8,10,12,14,-1,-1,-1,-1,-1,-1,-1,-1],"split_conditions":[6.3524866E-1,8.2608116E-1,1.8334702E0,1.4130591E-2,1.6768245E-1,5.847404E-1,2.704711E0,-0E0,6.1911136E-1,3.5013935E-1,-0E0,7.45497E-1,9.0309465E-1,6.154945E-1,-0E0],"split_indices":[5,13,19,22,0,9,0,0,0,0,0,0,0,0,0],"split_type":[0,0,0,0,0,0,0,0,0,0,0,0,0,0,0],"sum_hessian":[9.39E2,1.73E2,7.66E2,1.26E2,4.7E1,7.15E2,5.1E1,2E0,1.24E2,4.6E1,1E0,1.47E2,5.68E2,5E1,1E0],"tree_param":{"num_deleted":"0","num_feature":"24","num_nodes":"15","size_leaf_vector":"0"}},{"base_weights":[2.5668713E1,1.610035E1,2.7151611E1,1.9614555E1,1.2701076E1,2.5271645E1,2.9655615E1,-0E0,1.9843693E1,-0E0,1.3014413E1,2.5302004E1,-0E0,-0E0,2.9743834E1],"categories":[],"categories_nodes":[],"categories_segments":[],"categories_sizes":[],"default_left":[1,1,1,1,1,1,1,0,0,0,0,0,0,0,0],"id":21,"left_children":[1,3,5,7,9,11,13,-1,-1,-1,-1,-1,-1,-1,-1],"loss_changes":[1.1909E4,5.628086E2,1.61625E3,1.441914E2,9.216797E1,9.75E1,8.7865625E2,0E0,0E0,0E0,0E0,0E0,0E0,0E0,0E0],"parents":[2147483647,0,0,1,1,2,2,3,3,4,4,5,5,6,6],"right_children":[2,4,6,8,10,12,14,-1,-1,-1,-1,-1,-1,-1,-1],"split_conditions":[5.936329E-1,5.883761E-1,1.2468125E0,2.0377061E-1,5.940041E-1,2.4515917E0,7.281454E-1,-0E0,5.9531075E-1,-0E0,3.904324E-1,7.590601E-1,-0E0,-0E0,8.92315E-1],"split_indices":[6,13,22,13,13,13,6,0,0,0,0,0,0,0,0],"split_type":[0,0,0,0,0,0,0,0,0,0,0,0,0,0,0],"sum_hessian":[9.45E2,1.31E2,8.14E2,5.8E1,7.3E1,4.79E2,3.35E2,1E0,5.7E1,3E0,7E1,4.78E2,1E0,1E0,3.34E2],"tree_param":{"num_deleted":"0","num_feature":"24","num_nodes":"15","size_leaf_vector":"0"}},{"base_weights":[2.5100256E1,1.8664165E1,2.7127226E1,1.3477818E1,2.136057E1,2.541E1,2.9194258E1,-0E0,1.3690716E1,2.1503063E1,-0E0,2.5479836E1,6.3508743E-1],"categories":[],"categories_nodes":[],"categories_segments":[],"categories_sizes":[],"default_left":[1,1,1,1,1,1,0,0,0,0,0,0,0],"id":22,"left_children":[1,3,5,7,9,11,-1,-1,-1,-1,-1,-1,-1],"loss_changes":[1.0816E4,2.1787266E3,3.5975E2,1.3124023E2,4.5683594E2,1.65375E2,0E0,0E0,0E0,0E0,0E0,0E0,0E0],"parents":[2147483647,0,0,1,1,2,2,3,3,4,4,5,5],"right_children":[2,4,6,8,10,12,-1,-1,-1,-1,-1,-1,-1],"split_conditions":[7.326578E-1,2.3336008E-1,2.147132E0,1.7074627E-1,2.1180348E0,2.4508579E0,8.758277E-1,-0E0,4.1072145E-1,6.450919E-1,-0E0,7.6439506E-1,1.9052623E-2],"split_indices":[6,11,11,5,22,13,0,0,0,0,0,0,0],"split_type":[0,0,0,0,0,0,0,0,0,0,0,0,0],"sum_hessian":[9.56E2,2.35E2,7.21E2,8.6E1,1.49E2,4.1E2,3.11E2,2E0,8.4E1,1.48E2,1E0,4.08E2,2E0],"tree_param":{"num_deleted":"0","num_feature":"24","num_nodes":"13","size_leaf_vector":"0"}},{"base_weights":[2.4385435E1,1.5954741E1,2.5977722E1,1.3250398E1,2.0060225E1,2.6323027E1,1.7036106E1,1.5896671E1,9.762106E0,2.0863247E1,-0E0,2.4617575E1,2.8137358E1,1.7311653E1,-0E0],"categories":[],"categories_nodes":[],"categories_segments":[],"categories_sizes":[],"default_left":[1,1,1,1,1,1,1,0,0,0,0,0,0,0,0],"id":23,"left_children":[1,3,5,7,9,11,13,-1,-1,-1,-1,-1,-1,-1,-1],"loss_changes":[1.1097875E4,6.504336E2,8.761875E2,1.8175977E2,5.180449E2,2.219375E2,3.629297E1,0E0,0E0,0E0,0E0,0E0,0E0,0E0,0E0],"parents":[2147483647,0,0,1,1,2,2,3,3,4,4,5,5,6,6],"right_children":[2,4,6,8,10,12,14,-1,-1,-1,-1,-1,-1,-1,-1],"split_conditions":[6.284976E-1,2.8560495E-1,2.3827853E0,7.9327494E-1,1.2061512E0,1.1724333E0,2.704711E0,4.7690013E-1,2.9286316E-1,6.258974E-1,-0E0,7.3852724E-1,8.4412074E-1,5.193496E-1,-0E0],"split_indices":[7,10,19,14,15,22,0,0,0,0,0,0,0,0,0],"split_type":[0,0,0,0,0,0,0,0,0,0,0,0,0,0,0],"sum_hessian":[9.34E2,1.53E2,7.81E2,9.9E1,5.4E1,7.47E2,3.4E1,5E1,4.9E1,5.1E1,3E0,4.02E2,3.45E2,3.3E1,1E0],"tree_param":{"num_deleted":"0","num_feature":"24","num_nodes":"15","size_leaf_vector":"0"}},{"base_weights":[2.3692122E1,1.7147865E1,2.5573437E1,1.04525795E1,1.8852766E1,2.6063395E1,1.887639E1,-0E0,1.0715219E1,1.966074E1,9.495406E0,2.6090672E1,-0E0,-0E0,1.9155674E1],"categories":[],"categories_nodes":[],"categories_segments":[],"categories_sizes":[],"default_left":[1,1,1,1,1,1,1,0,0,0,0,0,0,0,0],"id":24,"left_children":[1,3,5,7,9,11,13,-1,-1,-1,-1,-1,-1,-1,-1],"loss_changes":[1.02639375E4,1.6352695E3,7.8321875E2,5.1123535E1,4.3347266E2,2.8728125E2,2.5442969E2,0E0,0E0,0E0,0E0,0E0,0E0,0E0,0E0],"parents":[2147483647,0,0,1,1,2,2,3,3,4,4,5,5,6,6],"right_children":[2,4,6,8,10,12,14,-1,-1,-1,-1,-1,-1,-1,-1],"split_conditions":[7.013221E-1,1.8996304E-1,1.5232605E0,1.7074627E-1,1.0801271E0,3.7029886E0,1.2412962E-2,-0E0,3.2145655E-1,5.898222E-1,2.848622E-1,7.8272015E-1,-0E0,-0E0,5.746702E-1],"split_indices":[6,11,18,5,15,0,1,0,0,0,0,0,0,0,0],"split_type":[0,0,0,0,0,0,0,0,0,0,0,0,0,0,0],"sum_hessian":[9.55E2,2.19E2,7.36E2,4.9E1,1.7E2,6.79E2,5.7E1,2E0,4.7E1,1.53E2,1.7E1,6.78E2,1E0,1E0,5.6E1],"tree_param":{"num_deleted":"0","num_feature":"24","num_nodes":"15","size_leaf_vector":"0"}},{"base_weights":[2.2953762E1,1.6560026E1,2.4660395E1,1.1748805E1,1.8449589E1,2.5009546E1,1.5392026E1,-0E0,1.2113809E1,1.1105435E1,1.943343E1,-0E0,1.5973483E1],"categories":[],"categories_nodes":[],"categories_segments":[],"categories_sizes":[],"default_left":[1,1,1,1,1,0,1,0,0,0,0,0,0],"id":25,"left_children":[1,3,5,7,9,-1,11,-1,-1,-1,-1,-1,-1],"loss_changes":[8.73825E3,9.209336E2,9.785E2,1.2155762E2,8.067578E1,0E0,3.3757227E2,0E0,0E0,0E0,0E0,0E0,0E0],"parents":[2147483647,0,0,1,1,2,2,3,3,4,4,6,6],"right_children":[2,4,6,8,10,-1,12,-1,-1,-1,-1,-1,-1],"split_conditions":[7.013221E-1,4.6878627E-1,2.2758522E0,8.2679756E-2,2.1796998E-1,7.502864E-1,6.0398865E-1,-0E0,3.6341426E-1,3.3316305E-1,5.8300287E-1,-0E0,4.7920448E-1],"split_indices":[7,7,19,23,11,0,6,0,0,0,0,0,0],"split_type":[0,0,0,0,0,0,0,0,0,0,0,0,0],"sum_hessian":[9.31E2,2.02E2,7.29E2,6.3E1,1.39E2,6.98E2,3.1E1,3E0,6E1,2.1E1,1.18E2,1E0,3E1],"tree_param":{"num_deleted":"0","num_feature":"24","num_nodes":"13","size_leaf_vector":"0"}},{"base_weights":[2.2136906E1,1.6393776E1,2.4230331E1,1.8034338E1,9.515821E0,2.46475E1,1.6754236E1,1.8106567E1,-0E0,-0E0,9.714957E0,-0E0,2.4674925E1,-0E0,1.7051899E1],"categories":[],"categories_nodes":[],"categories_segments":[],"categories_sizes":[],"default_left":[1,1,1,1,1,1,1,0,0,0,0,0,0,0,0],"id":26,"left_children":[1,3,5,7,9,11,13,-1,-1,-1,-1,-1,-1,-1,-1],"loss_changes":[9.947219E3,2.119711E3,6.9359375E2,2.0859375E2,2.3778809E1,2.6296875E2,1.4696582E2,0E0,0E0,0E0,0E0,0E0,0E0,0E0,0E0],"parents":[2147483647,0,0,1,1,2,2,3,3,4,4,5,5,6,6],"right_children":[2,4,6,8,10,12,14,-1,-1,-1,-1,-1,-1,-1,-1],"split_conditions":[4.8471493E-1,9.1614276E-1,1.6608832E0,3.258572E0,9.1359034E-2,4.004199E-1,5.24988E-1,5.4319704E-1,-0E0,-0E0,2.914487E-1,-0E0,7.402477E-1,-0E0,5.11557E-1],"split_indices":[10,15,19,21,11,6,6,0,0,0,0,0,0,0,0],"split_type":[0,0,0,0,0,0,0,0,0,0,0,0,0,0,0],"sum_hessian":[9.43E2,2.58E2,6.85E2,2.04E2,5.4E1,6.43E2,4.2E1,2.03E2,1E0,2E0,5.2E1,1E0,6.42E2,1E0,4.1E1],"tree_param":{"num_deleted":"0","num_feature":"24","num_nodes":"15","size_leaf_vector":"0"}},{"base_weights":[2.1556068E1,1.5769502E1,2.32788E1,1.6645006E1,7.002033E0,2.2024578E1,2.6458574E1,1.10586E1,1.7898098E1,7.436651E0,-0E0,2.208111E1,-0E0,-0E0,2.6576616E1],"categories":[],"categories_nodes":[],"categories_segments":[],"categories_sizes":[],"default_left":[1,1,1,1,1,1,1,0,0,0,0,0,0,0,0],"id":27,"left_children":[1,3,5,7,9,11,13,-1,-1,-1,-1,-1,-1,-1,-1],"loss_changes":[8.323094E3,1.1138711E3,1.1094375E3,5.6253125E2,1.04716675E2,3.8246875E2,5.301094E2,0E0,0E0,0E0,0E0,0E0,0E0,0E0,0E0],"parents":[2147483647,0,0,1,1,2,2,3,3,4,4,5,5,6,6],"right_children":[2,4,6,8,10,12,14,-1,-1,-1,-1,-1,-1,-1,-1],"split_conditions":[7.130951E-1,1.0982571E0,3.7195382E0,1.8996304E-1,1.2930238E-1,8.273183E0,4.4729435E-1,3.31758E-1,5.369429E-1,2.2309953E-1,-0E0,6.6243327E-1,-0E0,-0E0,7.972985E-1],"split_indices":[6,15,21,11,0,20,10,0,0,0,0,0,0,0,0],"split_type":[0,0,0,0,0,0,0,0,0,0,0,0,0,0,0],"sum_hessian":[9.67E2,2.28E2,7.39E2,2.04E2,2.4E1,5.43E2,1.96E2,4.3E1,1.61E2,2.3E1,1E0,5.41E2,2E0,1E0,1.95E2],"tree_param":{"num_deleted":"0","num_feature":"24","num_nodes":"15","size_leaf_vector":"0"}},{"base_weights":[2.0994669E1,1.5004206E1,2.2686754E1,9.4556E0,1.6473976E1,2.3150398E1,1.6738283E1,9.717878E0,-0E0,1.6594812E1,-0E0,2.3176323E1,-0E0,-0E0,1.7000706E1],"categories":[],"categories_nodes":[],"categories_segments":[],"categories_sizes":[],"default_left":[1,1,1,1,1,1,1,0,0,0,0,0,0,0,0],"id":28,"left_children":[1,3,5,7,9,11,13,-1,-1,-1,-1,-1,-1,-1,-1],"loss_changes":[8.329625E3,1.0051875E3,6.4121875E2,7.010889E1,3.859375E2,2.705625E2,2.5548828E2,0E0,0E0,0E0,0E0,0E0,0E0,0E0,0E0],"parents":[2147483647,0,0,1,1,2,2,3,3,4,4,5,5,6,6],"right_children":[2,4,6,8,10,12,14,-1,-1,-1,-1,-1,-1,-1,-1],"split_conditions":[7.1781874E-1,1.8996304E-1,1.3618655E0,3.908708E-1,2.0842235E0,3.7527654E0,2.488291E-2,2.9153633E-1,-0E0,4.9784437E-1,-0E0,6.952897E-1,-0E0,-0E0,5.1002115E-1],"split_indices":[7,11,18,21,23,0,3,0,0,0,0,0,0,0,0],"split_type":[0,0,0,0,0,0,0,0,0,0,0,0,0,0,0],"sum_hessian":[9.45E2,2.14E2,7.31E2,5E1,1.64E2,6.71E2,6E1,4.8E1,2E0,1.63E2,1E0,6.7E2,1E0,1E0,5.9E1],"tree_param":{"num_deleted":"0","num_feature":"24","num_nodes":"15","size_leaf_vector":"0"}},{"base_weights":[2.0194073E1,1.5431367E1,2.2340725E1,1.0257989E1,1.6842812E1,2.4422586E1,2.0799105E1,-0E0,1.0471881E1,-0E0,1.6979006E1,-0E0,2.4514738E1,2.0834866E1,-0E0],"categories":[],"categories_nodes":[],"categories_segments":[],"categories_sizes":[],"default_left":[1,1,1,1,1,1,1,0,0,0,0,0,0,0,0],"id":29,"left_children":[1,3,5,7,9,11,13,-1,-1,-1,-1,-1,-1,-1,-1],"loss_changes":[8.394094E3,1.4003516E3,4.053125E2,9.770654E1,2.0149219E2,5.737969E2,1.4132812E2,0E0,0E0,0E0,0E0,0E0,0E0,0E0,0E0],"parents":[2147483647,0,0,1,1,2,2,3,3,4,4,5,5,6,6],"right_children":[2,4,6,8,10,12,14,-1,-1,-1,-1,-1,-1,-1,-1],"split_conditions":[5.738494E-1,4.6878627E-1,2.521091E-1,1.7656055E-1,3.176758E-3,1.4640879E-2,2.9959345E0,-0E0,3.141564E-1,-0E0,5.0937015E-1,-0E0,7.354421E-1,6.2504596E-1,-0E0],"split_indices":[11,7,19,5,0,2,13,0,0,0,0,0,0,0,0],"split_type":[0,0,0,0,0,0,0,0,0,0,0,0,0,0,0],"sum_hessian":[9.44E2,3E2,6.44E2,7E1,2.3E2,2.59E2,3.85E2,2E0,6.8E1,3E0,2.27E2,1E0,2.58E2,3.84E2,1E0],"tree_param":{"num_deleted":"0","num_feature":"24","num_nodes":"15","size_leaf_vector":"0"}},{"base_weights":[1.958096E1,1.2405709E1,2.0918724E1,-0E0,1.2709194E1,2.145497E1,1.3974047E1,1.3678173E1,6.609584E0,2.0180902E1,2.3784544E1,-0E0,1.4348858E1],"categories":[],"categories_nodes":[],"categories_segments":[],"categories_sizes":[],"default_left":[1,1,1,0,1,1,1,0,0,0,0,0,0],"id":30,"left_children":[1,3,5,-1,7,9,11,-1,-1,-1,-1,-1,-1],"loss_changes":[8.1350938E3,3.8522266E2,1.83025E3,0E0,3.5406055E2,5.9553125E2,2.7293457E2,0E0,0E0,0E0,0E0,0E0,0E0],"parents":[2147483647,0,0,1,1,2,2,4,4,5,5,6,6],"right_children":[2,4,6,-1,8,10,12,-1,-1,-1,-1,-1,-1],"split_conditions":[6.2888825E-1,2.6789215E-1,1.7843869E0,-0E0,1.0906616E0,2.75487E0,6.0398865E-1,4.103452E-1,1.9828752E-1,6.054271E-1,7.135363E-1,-0E0,4.3046573E-1],"split_indices":[7,6,19,0,15,20,6,0,0,0,0,0,0],"split_type":[0,0,0,0,0,0,0,0,0,0,0,0,0],"sum_hessian":[9.56E2,1.55E2,8.01E2,5E0,1.5E2,7.38E2,6.3E1,1.25E2,2.5E1,4.92E2,2.46E2,2E0,6.1E1],"tree_param":{"num_deleted":"0","num_feature":"24","num_nodes":"13","size_leaf_vector":"0"}},{"base_weights":[1.9051777E1,1.294424E1,2.0651651E1,8.458122E0,1.4813629E1,2.0976448E1,1.245689E1,8.882052E0,-0E0,1.5487656E1,6.0680647E0,2.104616E1,2.6263647E0,-0E0,1.2978689E1],"categories":[],"categories_nodes":[],"categories_segments":[],"categories_sizes":[],"default_left":[1,1,1,1,1,1,1,0,0,0,0,0,0,0,0],"id":31,"left_children":[1,3,5,7,9,11,13,-1,-1,-1,-1,-1,-1,-1,-1],"loss_changes":[8.195156E3,1.0532344E3,9.2628125E2,9.438916E1,2.4433594E2,3.56375E2,2.8944678E2,0E0,0E0,0E0,0E0,0E0,0E0,0E0,0E0],"parents":[2147483647,0,0,1,1,2,2,3,3,4,4,5,5,6,6],"right_children":[2,4,6,8,10,12,14,-1,-1,-1,-1,-1,-1,-1,-1],"split_conditions":[7.014307E-1,4.6878627E-1,2.3342452E0,1.2231836E0,1.0980272E0,2.354924E0,6.0398865E-1,2.6646158E-1,-0E0,4.6462965E-1,1.8204194E-1,6.313848E-1,7.879094E-2,-0E0,3.8936067E-1],"split_indices":[7,7,19,15,15,13,6,0,0,0,0,0,0,0,0],"split_type":[0,0,0,0,0,0,0,0,0,0,0,0,0,0,0],"sum_hessian":[9.47E2,2.02E2,7.45E2,6.5E1,1.37E2,7.12E2,3.3E1,6E1,5E0,1.24E2,1.3E1,7.08E2,4E0,1E0,3.2E1],"tree_param":{"num_deleted":"0","num_feature":"24","num_nodes":"15","size_leaf_vector":"0"}},{"base_weights":[1.8729038E1,1.3473089E1,2.0240435E1,9.41717E0,1.4958585E1,1.852213E1,2.2306662E1,-0E0,9.719472E0,1.5091057E1,-0E0,-0E0,1.858496E1,-0E0,2.2374828E1],"categories":[],"categories_nodes":[],"categories_segments":[],"categories_sizes":[],"default_left":[1,1,1,1,1,1,1,0,0,0,0,0,0,0,0],"id":32,"left_children":[1,3,5,7,9,11,13,-1,-1,-1,-1,-1,-1,-1,-1],"loss_changes":[6.459375E3,6.236836E2,1.1608125E3,1.0130176E2,3.8728516E2,2.7326562E2,4.7246875E2,0E0,0E0,0E0,0E0,0E0,0E0,0E0,0E0],"parents":[2147483647,0,0,1,1,2,2,3,3,4,4,5,5,6,6],"right_children":[2,4,6,8,10,12,14,-1,-1,-1,-1,-1,-1,-1,-1],"split_conditions":[7.1781874E-1,4.5695776E-1,1.3682423E0,2.4484861E-1,2.0842235E0,5.7632882E-2,3.0003744E-1,-0E0,2.9158416E-1,4.527317E-1,-0E0,-0E0,5.575488E-1,-0E0,6.7124486E-1],"split_indices":[7,7,21,7,23,18,9,0,0,0,0,0,0,0,0],"split_type":[0,0,0,0,0,0,0,0,0,0,0,0,0,0,0],"sum_hessian":[9.48E2,2.18E2,7.3E2,6.5E1,1.53E2,4.12E2,3.18E2,3E0,6.2E1,1.52E2,1E0,2E0,4.1E2,1E0,3.17E2],"tree_param":{"num_deleted":"0","num_feature":"24","num_nodes":"15","size_leaf_vector":"0"}},{"base_weights":[1.7780304E1,1.0767343E1,1.878764E1,1.3353746E1,7.147396E0,1.951654E1,1.481445E1,1.4046159E1,-0E0,7.266982E0,-0E0,1.9570984E1,4.6671212E-1,-0E0,1.4927356E1],"categories":[],"categories_nodes":[],"categories_segments":[],"categories_sizes":[],"default_left":[1,1,1,1,1,1,1,0,0,0,0,0,0,0,0],"id":33,"left_children":[1,3,5,7,9,11,13,-1,-1,-1,-1,-1,-1,-1,-1],"loss_changes":[5.6577188E3,5.9373535E2,1.215375E3,4.7246094E2,4.630664E1,2.8298438E2,2.321836E2,0E0,0E0,0E0,0E0,0E0,0E0,0E0,0E0],"parents":[2147483647,0,0,1,1,2,2,3,3,4,4,5,5,6,6],"right_children":[2,4,6,8,10,12,14,-1,-1,-1,-1,-1,-1,-1,-1],"split_conditions":[5.9094656E-1,7.392606E-1,9.897263E-1,6.3870355E-2,5.8401924E-1,2.5073414E0,1.0009041E-1,4.2138475E-1,-0E0,2.1800946E-1,-0E0,5.871295E-1,1.4001363E-2,-0E0,4.4782066E-1],"split_indices":[7,15,19,0,7,13,22,0,0,0,0,0,0,0,0],"split_type":[0,0,0,0,0,0,0,0,0,0,0,0,0,0,0],"sum_hessian":[9.26E2,1.21E2,8.05E2,6.5E1,5.6E1,6.71E2,1.34E2,6.1E1,4E0,5.5E1,1E0,6.68E2,3E0,1E0,1.33E2],"tree_param":{"num_deleted":"0","num_feature":"24","num_nodes":"15","size_leaf_vector":"0"}},{"base_weights":[1.7390915E1,1.1718973E1,1.8631071E1,1.3802247E1,6.7358484E0,2.0031132E1,1.650902E1,1.4016215E1,-0E0,6.987073E0,-0E0,2.0116508E1,4.5737755E-1,2.8413773E-1,1.6650429E1],"categories":[],"categories_nodes":[],"categories_segments":[],"categories_sizes":[],"default_left":[1,1,1,1,1,1,1,0,0,0,0,0,0,0,0],"id":34,"left_children":[1,3,5,7,9,11,13,-1,-1,-1,-1,-1,-1,-1,-1],"loss_changes":[5.6740312E3,1.2716875E3,1.0474375E3,3.1838672E2,1.4941382E2,3.2421875E2,3.8496094E2,0E0,0E0,0E0,0E0,0E0,0E0,0E0,0E0],"parents":[2147483647,0,0,1,1,2,2,3,3,4,4,5,5,6,6],"right_children":[2,4,6,8,10,12,14,-1,-1,-1,-1,-1,-1,-1,-1],"split_conditions":[6.3534904E-1,7.785117E-1,3.2951134E-1,1.724866E-1,1.6768245E-1,2.5073414E0,3.7633497E-3,4.2048645E-1,-0E0,2.0961219E-1,-0E0,6.0349524E-1,1.3721326E-2,8.524132E-3,4.9951285E-1],"split_indices":[5,13,18,3,0,13,0,0,0,0,0,0,0,0,0],"split_type":[0,0,0,0,0,0,0,0,0,0,0,0,0,0,0],"sum_hessian":[9.38E2,1.74E2,7.64E2,1.18E2,5.6E1,4.47E2,3.17E2,1.16E2,2E0,5.5E1,1E0,4.44E2,3E0,4E0,3.13E2],"tree_param":{"num_deleted":"0","num_feature":"24","num_nodes":"15","size_leaf_vector":"0"}},{"base_weights":[1.7082125E1,1.1962241E1,1.8510983E1,1.351476E1,7.1868544E0,1.9874851E1,1.6386524E1,1.3647633E1,-0E0,-0E0,7.5586066E0,1.9962616E1,4.482299E-1,1.6414082E1,-0E0],"categories":[],"categories_nodes":[],"categories_segments":[],"categories_sizes":[],"default_left":[1,1,1,1,1,1,1,0,0,0,0,0,0,1,1],"id":35,"left_children":[1,3,5,7,9,11,-1,-1,-1,-1,-1,-1,-1,-1,-1],"loss_changes":[5.9387188E3,1.0157246E3,8.9996875E2,1.8870312E2,9.214673E1,3.140625E2,1.2890625E0,0E0,0E0,0E0,0E0,0E0,0E0,0E0,0E0],"parents":[2147483647,0,0,1,1,2,2,3,3,4,4,5,5,6,6],"right_children":[2,4,6,8,10,12,-1,-1,-1,-1,-1,-1,-1,-1,-1],"split_conditions":[7.1781874E-1,7.9327494E-1,3.521623E-1,2.4824991E0,2.6590276E-1,2.5073414E0,4.9159572E-1,4.0942895E-1,-0E0,-0E0,2.267582E-1,5.9887844E-1,1.3446897E-2,4.9242243E-1,-0E0],"split_indices":[7,14,19,22,6,13,4,0,0,0,0,0,0,2147483647,2147483647],"split_type":[0,0,0,0,0,0,0,0,0,0,0,0,0,0,0],"sum_hessian":[9.39E2,2.11E2,7.28E2,1.54E2,5.7E1,4.3E2,2.98E2,1.52E2,2E0,4E0,5.3E1,4.27E2,3E0,2.97E2,1E0],"tree_param":{"num_deleted":"2","num_feature":"24","num_nodes":"15","size_leaf_vector":"0"}},{"base_weights":[1.6421616E1,1.232015E1,1.7937494E1,1.3405856E1,7.072027E0,1.6903564E1,2.0393463E1,2.3553448E0,1.3666489E1,-0E0,7.2711115E0,-0E0,1.6935974E1,2.0490051E1,-0E0],"categories":[],"categories_nodes":[],"categories_segments":[],"categories_sizes":[],"default_left":[1,1,1,1,1,1,1,0,0,0,0,0,0,0,0],"id":36,"left_children":[1,3,5,7,9,11,13,-1,-1,-1,-1,-1,-1,-1,-1],"loss_changes":[4.941828E3,9.496328E2,4.7259375E2,2.461875E2,4.1319824E1,2.5659375E2,3.2846094E2,0E0,0E0,0E0,0E0,0E0,0E0,0E0,0E0],"parents":[2147483647,0,0,1,1,2,2,3,3,4,4,5,5,6,6],"right_children":[2,4,6,8,10,12,14,-1,-1,-1,-1,-1,-1,-1,-1],"split_conditions":[4.8793042E-1,9.17126E-1,3.6999474E0,2.9357404E-1,9.1359034E-2,4.2290866E-1,3.7527654E0,7.0660345E-2,4.0999466E-1,-0E0,2.1813335E-1,-0E0,5.0807923E-1,6.147015E-1,-0E0],"split_indices":[10,15,21,7,11,7,0,0,0,0,0,0,0,0,0],"split_type":[0,0,0,0,0,0,0,0,0,0,0,0,0,0,0],"sum_hessian":[9.44E2,2.62E2,6.82E2,2.12E2,5E1,4.94E2,1.88E2,7E0,2.05E2,2E0,4.8E1,1E0,4.93E2,1.87E2,1E0],"tree_param":{"num_deleted":"0","num_feature":"24","num_nodes":"15","size_leaf_vector":"0"}},{"base_weights":[1.5955041E1,1.105792E1,1.7328533E1,7.6596856E0,1.2960259E1,1.5775148E1,1.89823E1,7.8175673E0,-0E0,1.3424653E1,1.4089493E0,1.5836028E1,-0E0,-0E0,1.9041582E1],"categories":[],"categories_nodes":[],"categories_segments":[],"categories_sizes":[],"default_left":[1,1,1,1,1,1,1,0,0,0,0,0,0,0,0],"id":37,"left_children":[1,3,5,7,9,11,13,-1,-1,-1,-1,-1,-1,-1,-1],"loss_changes":[5.598578E3,8.4474414E2,7.656875E2,8.6697266E1,3.910957E2,2.6533594E2,4.1846875E2,0E0,0E0,0E0,0E0,0E0,0E0,0E0,0E0],"parents":[2147483647,0,0,1,1,2,2,3,3,4,4,5,5,6,6],"right_children":[2,4,6,8,10,12,14,-1,-1,-1,-1,-1,-1,-1,-1],"split_conditions":[7.1781874E-1,2.3336008E-1,1.2468125E0,1.1903391E0,1.148633E0,1.2173641E0,2.9736885E-1,2.3452702E-1,-0E0,4.0273958E-1,4.2268477E-2,4.7508082E-1,-0E0,-0E0,5.7124746E-1],"split_indices":[7,11,22,4,15,22,9,0,0,0,0,0,0,0,0],"split_type":[0,0,0,0,0,0,0,0,0,0,0,0,0,0,0],"sum_hessian":[9.58E2,2.16E2,7.42E2,8.4E1,1.32E2,3.97E2,3.45E2,8.2E1,2E0,1.25E2,7E0,3.95E2,2E0,1E0,3.44E2],"tree_param":{"num_deleted":"0","num_feature":"24","num_nodes":"15","size_leaf_vector":"0"}},{"base_weights":[1.5294841E1,1.2402207E1,1.7277893E1,6.980568E0,1.3414131E1,1.7492002E1,4.432078E0,7.5549774E0,-0E0,1.3868045E1,7.0446577E0,-0E0,1.7543722E1,5.167862E0,-0E0],"categories":[],"categories_nodes":[],"categories_segments":[],"categories_sizes":[],"default_left":[1,1,1,1,1,1,1,0,0,0,0,0,0,0,0],"id":38,"left_children":[1,3,5,7,9,11,13,-1,-1,-1,-1,-1,-1,-1,-1],"loss_changes":[4.4454844E3,1.5885586E3,9.4834375E2,2.2111499E2,3.705039E2,3.5478125E2,3.487996E1,0E0,0E0,0E0,0E0,0E0,0E0,0E0,0E0],"parents":[2147483647,0,0,1,1,2,2,3,3,4,4,5,5,6,6],"right_children":[2,4,6,8,10,12,14,-1,-1,-1,-1,-1,-1,-1,-1],"split_conditions":[8.696742E-1,4.6878627E-1,2.5003872E0,7.1308637E-1,1.0706413E0,5.7632882E-2,1.2027171E0,2.2664931E-1,-0E0,4.1604134E-1,2.1133973E-1,-0E0,5.2631164E-1,1.5503585E-1,-0E0],"split_indices":[11,7,16,4,15,18,20,0,0,0,0,0,0,0,0],"split_type":[0,0,0,0,0,0,0,0,0,0,0,0,0,0,0],"sum_hessian":[9.33E2,3.88E2,5.45E2,6.6E1,3.22E2,5.34E2,1.1E1,6E1,6E0,2.96E2,2.6E1,2E0,5.32E2,9E0,2E0],"tree_param":{"num_deleted":"0","num_feature":"24","num_nodes":"15","size_leaf_vector":"0"}},{"base_weights":[1.5011881E1,1.0941351E1,1.6544992E1,1.192141E1,6.415945E0,1.3763806E1,1.7490013E1,1.9581728E0,1.2246139E1,-0E0,6.688737E0,1.3908476E1,-0E0,-0E0,1.7545578E1],"categories":[],"categories_nodes":[],"categories_segments":[],"categories_sizes":[],"default_left":[1,1,1,1,1,1,1,0,0,0,0,0,0,0,0],"id":39,"left_children":[1,3,5,7,9,11,13,-1,-1,-1,-1,-1,-1,-1,-1],"loss_changes":[5.097922E3,7.0492773E2,8.07625E2,3.739297E2,6.0611816E1,3.5572266E2,3.5478125E2,0E0,0E0,0E0,0E0,0E0,0E0,0E0,0E0],"parents":[2147483647,0,0,1,1,2,2,3,3,4,4,5,5,6,6],"right_children":[2,4,6,8,10,12,14,-1,-1,-1,-1,-1,-1,-1,-1],"split_conditions":[4.8471493E-1,9.17126E-1,9.2306674E-1,2.9357404E-1,1.3728957E-1,2.655823E-1,5.7632882E-2,5.8745183E-2,3.6738414E-1,-0E0,2.006621E-1,4.1725427E-1,-0E0,-0E0,5.263673E-1],"split_indices":[10,15,7,7,23,3,18,0,0,0,0,0,0,0,0],"split_type":[0,0,0,0,0,0,0,0,0,0,0,0,0,0,0],"sum_hessian":[9.47E2,2.66E2,6.81E2,2.13E2,5.3E1,1.84E2,4.97E2,9E0,2.04E2,3E0,5E1,1.82E2,2E0,2E0,4.95E2],"tree_param":{"num_deleted":"0","num_feature":"24","num_nodes":"15","size_leaf_vector":"0"}},{"base_weights":[1.4363876E1,1.1430056E1,1.641326E1,7.513653E0,1.2541924E1,1.6600126E1,7.5990615E0,8.532196E0,1.8097515E0,1.264822E1,-0E0,-0E0,1.6623743E1,-0E0,9.169543E0],"categories":[],"categories_nodes":[],"categories_segments":[],"categories_sizes":[],"default_left":[1,1,1,1,1,1,1,0,0,0,0,0,0,0,0],"id":40,"left_children":[1,3,5,7,9,11,13,-1,-1,-1,-1,-1,-1,-1,-1],"loss_changes":[4.9006875E3,1.205875E3,2.4009375E2,3.3063232E2,5.0073047E2,1.4695312E2,1.8228241E2,0E0,0E0,0E0,0E0,0E0,0E0,0E0,0E0],"parents":[2147483647,0,0,1,1,2,2,3,3,4,4,5,5,6,6],"right_children":[2,4,6,8,10,12,14,-1,-1,-1,-1,-1,-1,-1,-1],"split_conditions":[9.212186E-1,2.3336008E-1,1.7972577E0,7.2763264E-1,3.8220716E0,2.103531E-2,9.732703E-1,2.559659E-1,5.4292545E-2,3.794466E-1,-0E0,-0E0,4.9871227E-1,-0E0,2.7508628E-1],"split_indices":[11,11,19,4,23,17,7,0,0,0,0,0,0,0,0],"split_type":[0,0,0,0,0,0,0,0,0,0,0,0,0,0,0],"sum_hessian":[9.53E2,4E2,5.53E2,9.5E1,3.05E2,5.38E2,1.5E1,7.7E1,1.8E1,3.03E2,2E0,1E0,5.37E2,3E0,1.2E1],"tree_param":{"num_deleted":"0","num_feature":"24","num_nodes":"15","size_leaf_vector":"0"}},{"base_weights":[1.3794408E1,9.863261E0,1.4996336E1,1.0373614E1,2.95039E0,1.3405645E1,1.6476751E1,1.0494985E1,-0E0,-0E0,4.5162516E0,1.3468671E1,-0E0,1.6561419E1,-0E0],"categories":[],"categories_nodes":[],"categories_segments":[],"categories_sizes":[],"default_left":[1,1,1,1,1,1,1,0,0,0,0,0,0,0,0],"id":41,"left_children":[1,3,5,7,9,11,13,-1,-1,-1,-1,-1,-1,-1,-1],"loss_changes":[3.72475E3,4.9376172E2,7.5125E2,3.1033594E2,1.3769774E2,2.4440625E2,4.4866406E2,0E0,0E0,0E0,0E0,0E0,0E0,0E0,0E0],"parents":[2147483647,0,0,1,1,2,2,3,3,4,4,5,5,6,6],"right_children":[2,4,6,8,10,12,14,-1,-1,-1,-1,-1,-1,-1,-1],"split_conditions":[7.127857E-1,1.3104026E0,1.1283942E0,2.7480948E-1,1.2061644E0,1.6590371E0,1.7258127E0,3.1484953E-1,-0E0,-0E0,1.3548754E-1,4.0406013E-1,-0E0,4.9684253E-1,-0E0],"split_indices":[6,13,22,3,14,21,16,0,0,0,0,0,0,0,0],"split_type":[0,0,0,0,0,0,0,0,0,0,0,0,0,0,0],"sum_hessian":[9.39E2,2.27E2,7.12E2,2.08E2,1.9E1,3.57E2,3.55E2,2.06E2,2E0,5E0,1.4E1,3.55E2,2E0,3.53E2,2E0],"tree_param":{"num_deleted":"0","num_feature":"24","num_nodes":"15","size_leaf_vector":"0"}},{"base_weights":[1.3951062E1,6.386697E0,1.4482521E1,6.8365164E0,-0E0,1.7849453E1,1.374411E1,-0E0,7.349734E0,6.3684807E0,1.8563387E1,1.1162405E1,1.4463398E1],"categories":[],"categories_nodes":[],"categories_segments":[],"categories_sizes":[],"default_left":[1,1,1,1,0,1,1,0,0,0,0,0,0],"id":42,"left_children":[1,3,5,7,-1,9,11,-1,-1,-1,-1,-1,-1],"loss_changes":[3.2007031E3,2.0859424E2,1.161875E3,1.8494653E2,0E0,5.2483984E2,5.907031E2,0E0,0E0,0E0,0E0,0E0,0E0],"parents":[2147483647,0,0,1,1,2,2,3,3,5,5,6,6],"right_children":[2,4,6,8,-1,10,12,-1,-1,-1,-1,-1,-1],"split_conditions":[4.6334025E-1,8.103435E-1,1.905809E-1,2.6590276E-1,-0E0,1.41968E-1,4.449429E-1,-0E0,2.20492E-1,1.9105442E-1,5.569016E-1,3.3487216E-1,4.3390194E-1],"split_indices":[7,4,19,6,0,22,9,0,0,0,0,0,0],"split_type":[0,0,0,0,0,0,0,0,0,0,0,0,0],"sum_hessian":[9.33E2,6.5E1,8.68E2,6.1E1,4E0,1.45E2,7.23E2,5E0,5.6E1,1.1E1,1.34E2,1.69E2,5.54E2],"tree_param":{"num_deleted":"0","num_feature":"24","num_nodes":"13","size_leaf_vector":"0"}},{"base_weights":[1.3194192E1,9.310657E0,1.4357652E1,5.950357E0,1.0548603E1,1.5509194E1,1.2438128E1,1.1237398E0,7.122529E0,1.0676208E1,-0E0,1.5568867E1,-0E0,1.2506926E1,-0E0],"categories":[],"categories_nodes":[],"categories_segments":[],"categories_sizes":[],"default_left":[1,1,1,1,1,1,1,0,0,0,0,0,0,0,0],"id":43,"left_children":[1,3,5,7,9,11,13,-1,-1,-1,-1,-1,-1,-1,-1],"loss_changes":[3.5846406E3,5.139199E2,7.398906E2,2.1061597E2,3.1529688E2,3.2471094E2,1.7367969E2,0E0,0E0,0E0,0E0,0E0,0E0,0E0,0E0],"parents":[2147483647,0,0,1,1,2,2,3,3,4,4,5,5,6,6],"right_children":[2,4,6,8,10,12,14,-1,-1,-1,-1,-1,-1,-1,-1],"split_conditions":[7.1781874E-1,4.6878627E-1,3.5017782E-1,9.801924E-3,2.0842235E0,2.5073414E0,5.9831653E0,3.3712193E-2,2.1367587E-1,3.202862E-1,-0E0,4.67066E-1,-0E0,3.7520775E-1,-0E0],"split_indices":[7,7,19,16,23,13,16,0,0,0,0,0,0,0,0],"split_type":[0,0,0,0,0,0,0,0,0,0,0,0,0,0,0],"sum_hessian":[9.41E2,2.24E2,7.17E2,6.7E1,1.57E2,4.35E2,2.82E2,1.7E1,5E1,1.56E2,1E0,4.33E2,2E0,2.8E2,2E0],"tree_param":{"num_deleted":"0","num_feature":"24","num_nodes":"15","size_leaf_vector":"0"}},{"base_weights":[1.329197E1,7.9860287E0,1.40839205E1,1.0554171E1,5.5081363E0,1.1940297E1,1.4988721E1,1.1924956E1,1.7764671E0,5.6519666E0,-0E0,1.2047041E1,-0E0,1.5211086E1,5.6805186E0],"categories":[],"categories_nodes":[],"categories_segments":[],"categories_sizes":[],"default_left":[1,1,1,1,1,1,1,0,0,0,0,0,0,0,0],"id":44,"left_children":[1,3,5,7,9,11,13,-1,-1,-1,-1,-1,-1,-1,-1],"loss_changes":[3.3292969E3,4.0927344E2,7.6496875E2,3.8605518E2,8.44292E1,2.162539E2,6.064922E2,0E0,0E0,0E0,0E0,0E0,0E0,0E0,0E0],"parents":[2147483647,0,0,1,1,2,2,3,3,4,4,5,5,6,6],"right_children":[2,4,6,8,10,12,14,-1,-1,-1,-1,-1,-1,-1,-1],"split_conditions":[5.9217244E-1,6.1410594E-1,2.3766957E-1,6.643314E-1,7.006434E-1,1.8539858E0,3.0142066E0,3.577487E-1,5.329401E-2,1.6955899E-1,-0E0,3.614112E-1,-0E0,4.5633256E-1,1.7041555E-1],"split_indices":[6,13,20,4,7,13,16,0,0,0,0,0,0,0,0],"split_type":[0,0,0,0,0,0,0,0,0,0,0,0,0,0,0],"sum_hessian":[9.36E2,1.27E2,8.09E2,5.6E1,7.1E1,2.53E2,5.56E2,4.6E1,1E1,7E1,1E0,2.5E2,3E0,5.4E2,1.6E1],"tree_param":{"num_deleted":"0","num_feature":"24","num_nodes":"15","size_leaf_vector":"0"}},{"base_weights":[1.2308628E1,8.980089E0,1.3660345E1,9.99079E0,4.781784E0,1.48564205E1,1.17187395E1,1.0310744E1,-0E0,1.8626264E0,6.930989E0,1.4963963E1,-0E0,-0E0,1.1979051E1],"categories":[],"categories_nodes":[],"categories_segments":[],"categories_sizes":[],"default_left":[1,1,1,1,1,1,1,0,0,0,0,0,0,0,0],"id":45,"left_children":[1,3,5,7,9,11,13,-1,-1,-1,-1,-1,-1,-1,-1],"loss_changes":[3.7072031E3,8.5281836E2,7.8535156E2,6.2075195E2,1.9687976E2,4.1434375E2,6.765156E2,0E0,0E0,0E0,0E0,0E0,0E0,0E0,0E0],"parents":[2147483647,0,0,1,1,2,2,3,3,4,4,5,5,6,6],"right_children":[2,4,6,8,10,12,14,-1,-1,-1,-1,-1,-1,-1,-1],"split_conditions":[4.6535048E-1,9.17126E-1,3.3455765E-1,9.493472E-2,3.2072276E-2,2.329012E0,5.5535287E-1,3.0932233E-1,-0E0,5.5878792E-2,2.0792966E-1,4.4891888E-1,-0E0,-0E0,3.593715E-1],"split_indices":[9,15,18,2,0,13,6,0,0,0,0,0,0,0,0],"split_type":[0,0,0,0,0,0,0,0,0,0,0,0,0,0,0],"sum_hessian":[9.64E2,2.86E2,6.78E2,2.25E2,6.1E1,4.07E2,2.71E2,2.17E2,8E0,3.1E1,3E1,4.03E2,4E0,7E0,2.64E2],"tree_param":{"num_deleted":"0","num_feature":"24","num_nodes":"15","size_leaf_vector":"0"}},{"base_weights":[1.2202983E1,8.353114E0,1.3319264E1,6.193901E0,1.0450176E1,1.4355147E1,1.1517544E1,3.6835744E0,8.178589E0,1.0647424E1,-0E0,1.1717216E1,1.5386612E1,1.1692132E1,8.759562E-2],"categories":[],"categories_nodes":[],"categories_segments":[],"categories_sizes":[],"default_left":[1,1,1,1,1,1,1,0,0,0,0,0,0,0,0],"id":46,"left_children":[1,3,5,7,9,11,13,-1,-1,-1,-1,-1,-1,-1,-1],"loss_changes":[3.5188438E3,5.8203613E2,6.091328E2,3.0795947E2,3.298252E2,4.2415625E2,3.2860547E2,0E0,0E0,0E0,0E0,0E0,0E0,0E0,0E0],"parents":[2147483647,0,0,1,1,2,2,3,3,4,4,5,5,6,6],"right_children":[2,4,6,8,10,12,14,-1,-1,-1,-1,-1,-1,-1,-1],"split_conditions":[7.16016E-1,2.8323492E-1,3.521623E-1,2.4264753E-1,2.0842235E0,3.7489277E-1,3.8915756E0,1.1050723E-1,2.4535766E-1,3.194227E-1,-0E0,3.5151646E-1,4.6159834E-1,3.5076395E-1,2.6278684E-3],"split_indices":[7,10,19,19,23,20,19,0,0,0,0,0,0,0,0],"split_type":[0,0,0,0,0,0,0,0,0,0,0,0,0,0,0],"sum_hessian":[9.57E2,2.22E2,7.35E2,1.17E2,1.05E2,4.53E2,2.82E2,5.8E1,5.9E1,1.04E2,1E0,1.38E2,3.15E2,2.76E2,6E0],"tree_param":{"num_deleted":"0","num_feature":"24","num_nodes":"15","size_leaf_vector":"0"}},{"base_weights":[1.16626005E1,8.121182E0,1.2694789E1,9.184842E0,3.9128962E0,1.1286341E1,1.4124515E1,9.553399E0,1.6914128E0,4.223378E0,-0E0,1.1342116E1,-0E0,-0E0,1.4186736E1],"categories":[],"categories_nodes":[],"categories_segments":[],"categories_sizes":[],"default_left":[1,1,1,1,1,1,1,0,0,0,0,0,0,0,0],"id":47,"left_children":[1,3,5,7,9,11,13,-1,-1,-1,-1,-1,-1,-1,-1],"loss_changes":[2.9108125E3,6.845635E2,7.2366406E2,2.3003027E2,7.658667E1,2.2547656E2,4.1440625E2,0E0,0E0,0E0,0E0,0E0,0E0,0E0,0E0],"parents":[2147483647,0,0,1,1,2,2,3,3,4,4,5,5,6,6],"right_children":[2,4,6,8,10,12,14,-1,-1,-1,-1,-1,-1,-1,-1],"split_conditions":[7.009456E-1,9.116248E-1,1.1052897E0,1.0152246E-1,3.632086E-1,7.8431635E0,1.3516446E-2,2.8660196E-1,5.0742384E-2,1.2670134E-1,-0E0,3.402635E-1,-0E0,-0E0,4.2560208E-1],"split_indices":[6,15,23,2,10,20,2,0,0,0,0,0,0,0,0],"split_type":[0,0,0,0,0,0,0,0,0,0,0,0,0,0,0],"sum_hessian":[9.51E2,2.22E2,7.29E2,1.72E2,5E1,3.81E2,3.48E2,1.61E2,1.1E1,4.7E1,3E0,3.79E2,2E0,1E0,3.47E2],"tree_param":{"num_deleted":"0","num_feature":"24","num_nodes":"15","size_leaf_vector":"0"}},{"base_weights":[1.1192433E1,8.044965E0,1.2331528E1,8.829111E0,3.9319212E0,1.3232131E1,1.0009572E1,9.066214E0,2.0085706E-1,4.3540907E0,-0E0,1.3332516E1,1.5145187E0,-0E0,1.0110631E1],"categories":[],"categories_nodes":[],"categories_segments":[],"categories_sizes":[],"default_left":[1,1,1,1,1,1,1,0,0,0,0,0,0,0,0],"id":48,"left_children":[1,3,5,7,9,11,13,-1,-1,-1,-1,-1,-1,-1,-1],"loss_changes":[2.8371094E3,5.3287695E2,7.7416406E2,2.4870312E2,5.590924E1,2.4267969E2,2.1136523E2,0E0,0E0,0E0,0E0,0E0,0E0,0E0,0E0],"parents":[2147483647,0,0,1,1,2,2,3,3,4,4,5,5,6,6],"right_children":[2,4,6,8,10,12,14,-1,-1,-1,-1,-1,-1,-1,-1],"split_conditions":[4.8793042E-1,9.1614276E-1,4.122659E-1,8.0201685E-1,5.517347E-1,3.8072221E0,1.7920863E-2,2.719864E-1,6.0257115E-3,1.3062271E-1,-0E0,3.9997545E-1,4.5435563E-2,-0E0,3.0331892E-1],"split_indices":[10,15,17,11,20,4,3,0,0,0,0,0,0,0,0],"split_type":[0,0,0,0,0,0,0,0,0,0,0,0,0,0,0],"sum_hessian":[9.45E2,2.59E2,6.86E2,2.12E2,4.7E1,4.83E2,2.03E2,2.04E2,8E0,4.1E1,6E0,4.77E2,6E0,2E0,2.01E2],"tree_param":{"num_deleted":"0","num_feature":"24","num_nodes":"15","size_leaf_vector":"0"}},{"base_weights":[1.1207762E1,9.719279E0,1.3578348E1,6.4352007E0,1.0542732E1,1.3735564E1,2.3648877E0,7.126639E0,1.0318543E0,1.0747594E1,2.7664351E0,1.3756575E1,-0E0,-0E0,3.9505117E0],"categories":[],"categories_nodes":[],"categories_segments":[],"categories_sizes":[],"default_left":[1,1,1,1,1,1,1,0,0,0,0,0,0,0,0],"id":49,"left_children":[1,3,5,7,9,11,13,-1,-1,-1,-1,-1,-1,-1,-1],"loss_changes":[2.679414E3,1.1609609E3,2.577578E2,3.021494E2,4.2828516E2,1.26328125E1,5.3904625E1,0E0,0E0,0E0,0E0,0E0,0E0,0E0,0E0],"parents":[2147483647,0,0,1,1,2,2,3,3,4,4,5,5,6,6],"right_children":[2,4,6,8,10,12,14,-1,-1,-1,-1,-1,-1,-1,-1],"split_conditions":[1.1840115E0,5.9094656E-1,1.7972577E0,7.5017214E-1,1.1793113E0,2.2713223E0,5.652554E-1,2.1379916E-1,3.0955628E-2,3.224278E-1,8.299305E-2,4.1269723E-1,-0E0,-0E0,1.1851535E-1],"split_indices":[21,7,19,4,15,14,16,0,0,0,0,0,0,0,0],"split_type":[0,0,0,0,0,0,0,0,0,0,0,0,0,0,0],"sum_hessian":[9.46E2,5.91E2,3.55E2,1.26E2,4.65E2,3.48E2,7E0,1.08E2,1.8E1,4.5E2,1.5E1,3.47E2,1E0,2E0,5E0],"tree_param":{"num_deleted":"0","num_feature":"24","num_nodes":"15","size_leaf_vector":"0"}},{"base_weights":[1.07983885E1,8.160446E0,1.1807359E1,9.005574E0,4.2426376E0,1.2034673E1,3.997443E0,9.341433E0,1.1935574E-1,2.5793924E0,1.0435602E1,1.423875E1,1.1210084E1,5.043213E0,-0E0],"categories":[],"categories_nodes":[],"categories_segments":[],"categories_sizes":[],"default_left":[1,1,1,1,1,1,1,0,0,0,0,0,0,0,0],"id":50,"left_children":[1,3,5,7,9,11,13,-1,-1,-1,-1,-1,-1,-1,-1],"loss_changes":[1.9300781E3,5.634297E2,7.851094E2,4.4929102E2,2.6069666E2,4.1748438E2,1.2044354E2,0E0,0E0,0E0,0E0,0E0,0E0,0E0,0E0],"parents":[2147483647,0,0,1,1,2,2,3,3,4,4,5,5,6,6],"right_children":[2,4,6,8,10,12,14,-1,-1,-1,-1,-1,-1,-1,-1],"split_conditions":[4.8992848E-1,9.17126E-1,2.0784576E0,9.493472E-2,5.365704E-1,2.1125385E-1,1.610257E-1,2.8024298E-1,3.580672E-3,7.7381775E-2,3.1306806E-1,4.271625E-1,3.3630252E-1,1.5129638E-1,-0E0],"split_indices":[10,15,19,2,16,19,1,0,0,0,0,0,0,0,0],"split_type":[0,0,0,0,0,0,0,0,0,0,0,0,0,0,0],"sum_hessian":[9.28E2,2.66E2,6.62E2,2.13E2,5.3E1,6.4E2,2.2E1,2.03E2,1E1,4.6E1,7E0,1.61E2,4.79E2,1.8E1,4E0],"tree_param":{"num_deleted":"0","num_feature":"24","num_nodes":"15","size_leaf_vector":"0"}},{"base_weights":[1.0434243E1,7.287155E0,1.1592461E1,8.0965805E0,3.7437985E0,1.2385811E1,9.387755E0,-0E0,8.397662E0,-0E0,4.683876E0,1.7491596E0,1.2577056E1,-0E0,9.487042E0],"categories":[],"categories_nodes":[],"categories_segments":[],"categories_sizes":[],"default_left":[1,1,1,1,1,1,1,0,0,0,0,0,0,0,0],"id":51,"left_children":[1,3,5,7,9,11,13,-1,-1,-1,-1,-1,-1,-1,-1],"loss_changes":[3.0295312E3,4.9067188E2,6.171172E2,4.2558203E2,1.4841162E2,7.0672656E2,2.8198828E2,0E0,0E0,0E0,0E0,0E0,0E0,0E0,0E0],"parents":[2147483647,0,0,1,1,2,2,3,3,4,4,5,5,6,6],"right_children":[2,4,6,8,10,12,14,-1,-1,-1,-1,-1,-1,-1,-1],"split_conditions":[4.8471493E-1,9.17126E-1,4.122659E-1,3.3736867E-1,1.7978746E-2,2.3040995E-2,2.0340395E-3,-0E0,2.5192985E-1,-0E0,1.4051628E-1,5.2474786E-2,3.7731168E-1,-0E0,2.8461125E-1],"split_indices":[10,15,17,7,0,2,0,0,0,0,0,0,0,0,0],"split_type":[0,0,0,0,0,0,0,0,0,0,0,0,0,0,0],"sum_hessian":[9.68E2,2.68E2,7E2,2.12E2,5.6E1,5.03E2,1.97E2,9E0,2.03E2,1.4E1,4.2E1,1.1E1,4.92E2,1E0,1.96E2],"tree_param":{"num_deleted":"0","num_feature":"24","num_nodes":"15","size_leaf_vector":"0"}},{"base_weights":[1.0265088E1,8.045141E0,1.1444464E1,3.618184E0,8.731379E0,1.2472861E1,9.608851E0,5.914864E0,9.266839E-1,9.083257E0,3.1238678E0,-0E0,1.2597084E1,9.87081E0,-0E0],"categories":[],"categories_nodes":[],"categories_segments":[],"categories_sizes":[],"default_left":[1,1,1,1,1,1,1,0,0,0,0,0,0,0,0],"id":52,"left_children":[1,3,5,7,9,11,13,-1,-1,-1,-1,-1,-1,-1,-1],"loss_changes":[1.9213828E3,7.248496E2,5.140625E2,1.7329529E2,2.766328E2,5.284375E2,3.9164453E2,0E0,0E0,0E0,0E0,0E0,0E0,0E0,0E0],"parents":[2147483647,0,0,1,1,2,2,3,3,4,4,5,5,6,6],"right_children":[2,4,6,8,10,12,14,-1,-1,-1,-1,-1,-1,-1,-1],"split_conditions":[6.908424E-1,4.1620904E-1,3.521623E-1,3.2749403E-1,7.4857485E-1,9.941E-4,1.2216251E0,1.7744592E-1,2.7800517E-2,2.7249768E-1,9.371603E-2,-0E0,3.7791252E-1,2.9612428E-1,-0E0],"split_indices":[10,6,19,6,9,8,13,0,0,0,0,0,0,0,0],"split_type":[0,0,0,0,0,0,0,0,0,0,0,0,0,0,0],"sum_hessian":[9.34E2,3.34E2,6E2,5E1,2.84E2,3.72E2,2.28E2,2.2E1,2.8E1,2.63E2,2.1E1,4E0,3.68E2,2.2E2,8E0],"tree_param":{"num_deleted":"0","num_feature":"24","num_nodes":"15","size_leaf_vector":"0"}},{"base_weights":[9.935337E0,7.2302766E0,1.0911158E1,8.004694E0,3.2650924E0,1.2254243E1,9.663856E0,9.096494E0,4.3022733E0,-0E0,3.9851718E0,1.2375237E1,6.626587E-1,-0E0,9.757221E0],"categories":[],"categories_nodes":[],"categories_segments":[],"categories_sizes":[],"default_left":[1,1,1,1,1,1,1,0,0,0,0,0,0,0,0],"id":53,"left_children":[1,3,5,7,9,11,13,-1,-1,-1,-1,-1,-1,-1,-1],"loss_changes":[1.9644766E3,5.199658E2,5.1059375E2,5.161416E2,1.1027283E2,1.6242578E2,2.783086E2,0E0,0E0,0E0,0E0,0E0,0E0,0E0,0E0],"parents":[2147483647,0,0,1,1,2,2,3,3,4,4,5,5,6,6],"right_children":[2,4,6,8,10,12,14,-1,-1,-1,-1,-1,-1,-1,-1],"split_conditions":[4.5455122E-1,9.870887E-1,2.6830065E-1,4.3971792E-2,1.0688466E0,7.6715503E0,4.974305E-1,2.728948E-1,1.290682E-1,-0E0,1.1955515E-1,3.7125713E-1,1.987976E-2,-0E0,2.9271662E-1],"split_indices":[9,15,18,1,15,11,6,0,0,0,0,0,0,0,0],"split_type":[0,0,0,0,0,0,0,0,0,0,0,0,0,0,0],"sum_hessian":[9.25E2,2.54E2,6.71E2,2.07E2,4.7E1,3.09E2,3.62E2,1.54E2,5.3E1,9E0,3.8E1,3.04E2,5E0,4E0,3.58E2],"tree_param":{"num_deleted":"0","num_feature":"24","num_nodes":"15","size_leaf_vector":"0"}},{"base_weights":[9.555895E0,4.772864E0,1.0020112E1,2.5506132E0,7.1554904E0,1.1533136E1,8.734747E0,3.1417E0,-0E0,8.334555E0,-0E0,-0E0,1.1675522E1,-0E0,8.824809E0],"categories":[],"categories_nodes":[],"categories_segments":[],"categories_sizes":[],"default_left":[1,1,1,1,1,1,1,0,0,0,0,0,0,0,0],"id":54,"left_children":[1,3,5,7,9,11,13,-1,-1,-1,-1,-1,-1,-1,-1],"loss_changes":[1.7362031E3,2.5768042E2,1.1131328E3,9.117636E1,3.558308E2,5.8240625E2,4.436328E2,0E0,0E0,0E0,0E0,0E0,0E0,0E0,0E0],"parents":[2147483647,0,0,1,1,2,2,3,3,4,4,5,5,6,6],"right_children":[2,4,6,8,10,12,14,-1,-1,-1,-1,-1,-1,-1,-1],"split_conditions":[2.3336008E-1,2.4358696E-1,2.8888556E-1,2.3157245E-1,4.8428386E-2,3.882457E-1,2.9130465E-1,9.4251E-2,-0E0,2.5003663E-1,-0E0,-0E0,3.5026565E-1,-0E0,2.6474425E-1],"split_indices":[11,19,19,17,3,5,19,0,0,0,0,0,0,0,0],"split_type":[0,0,0,0,0,0,0,0,0,0,0,0,0,0,0],"sum_hessian":[9.46E2,8.9E1,8.57E2,5.2E1,3.7E1,3.81E2,4.76E2,4.3E1,9E0,3.2E1,5E0,5E0,3.76E2,4E0,4.72E2],"tree_param":{"num_deleted":"0","num_feature":"24","num_nodes":"15","size_leaf_vector":"0"}},{"base_weights":[9.140145E0,7.345041E0,1.0348821E1,8.018611E0,3.1661732E0,1.0643658E1,5.556899E0,-0E0,8.120199E0,-0E0,3.4200573E0,1.0694652E1,-0E0,-2.3806909E-1,6.98681E0],"categories":[],"categories_nodes":[],"categories_segments":[],"categories_sizes":[],"default_left":[1,1,1,1,1,1,1,0,0,0,0,0,0,0,0],"id":55,"left_children":[1,3,5,7,9,11,13,-1,-1,-1,-1,-1,-1,-1,-1],"loss_changes":[1.6009062E3,8.5146094E2,3.777539E2,3.522461E2,5.6049377E1,2.2432422E2,4.6477832E2,0E0,0E0,0E0,0E0,0E0,0E0,0E0,0E0],"parents":[2147483647,0,0,1,1,2,2,3,3,4,4,5,5,6,6],"right_children":[2,4,6,8,10,12,14,-1,-1,-1,-1,-1,-1,-1,-1],"split_conditions":[3.55326E-1,9.17126E-1,1.5773274E0,8.7872334E-2,1.10421926E-1,2.1269908E0,1.7432789E0,-0E0,2.4360597E-1,-0E0,1.02601714E-1,3.2083955E-1,-0E0,-7.1420725E-3,2.0960431E-1],"split_indices":[20,15,17,23,22,19,17,0,0,0,0,0,0,0,0],"split_type":[0,0,0,0,0,0,0,0,0,0,0,0,0,0,0],"sum_hessian":[9.52E2,3.94E2,5.58E2,3.34E2,6E1,5.2E2,3.8E1,3E0,3.31E2,4E0,5.6E1,5.17E2,3E0,5E0,3.3E1],"tree_param":{"num_deleted":"0","num_feature":"24","num_nodes":"15","size_leaf_vector":"0"}},{"base_weights":[9.173965E0,4.58709E0,9.673237E0,7.904245E0,2.9802544E0,1.1007443E1,8.02174E0,8.763432E0,-0E0,-0E0,3.4161777E0,1.1137748E1,-0E0,-0E0,8.137307E0],"categories":[],"categories_nodes":[],"categories_segments":[],"categories_sizes":[],"default_left":[1,1,1,1,1,1,1,0,0,0,0,0,0,0,0],"id":56,"left_children":[1,3,5,7,9,11,13,-1,-1,-1,-1,-1,-1,-1,-1],"loss_changes":[1.8112188E3,2.7732227E2,1.3521797E3,1.6342456E2,1.23252075E2,6.999219E2,3.3194922E2,0E0,0E0,0E0,0E0,0E0,0E0,0E0,0E0],"parents":[2147483647,0,0,1,1,2,2,3,3,4,4,5,5,6,6],"right_children":[2,4,6,8,10,12,14,-1,-1,-1,-1,-1,-1,-1,-1],"split_conditions":[2.3336008E-1,5.4060173E-1,3.5209456E-1,7.527128E-1,1.10943E-1,3.8072221E0,4.695959E-1,2.6290295E-1,-0E0,-0E0,1.0248533E-1,3.3413243E-1,-0E0,-0E0,2.4411921E-1],"split_indices":[11,15,19,4,23,4,7,0,0,0,0,0,0,0,0],"split_type":[0,0,0,0,0,0,0,0,0,0,0,0,0,0,0],"sum_hessian":[9.43E2,9.8E1,8.45E2,2.6E1,7.2E1,4.56E2,3.89E2,2.3E1,3E0,7E0,6.5E1,4.51E2,5E0,6E0,3.83E2],"tree_param":{"num_deleted":"0","num_feature":"24","num_nodes":"15","size_leaf_vector":"0"}},{"base_weights":[8.753559E0,7.4217434E0,1.0182225E1,5.459142E0,8.414216E0,1.036778E1,-0E0,9.169297E0,3.7763355E0,8.517325E0,-0E0,1.0506301E1,2.4624875E-1,7.298455E-1,-0E0],"categories":[],"categories_nodes":[],"categories_segments":[],"categories_sizes":[],"default_left":[1,1,1,1,1,1,1,0,0,0,0,0,0,0,0],"id":57,"left_children":[1,3,5,7,9,11,13,-1,-1,-1,-1,-1,-1,-1,-1],"loss_changes":[1.3754453E3,6.538418E2,6.6198047E2,8.348247E2,2.8855078E2,4.0567188E2,5.060408E0,0E0,0E0,0E0,0E0,0E0,0E0,0E0,0E0],"parents":[2147483647,0,0,1,1,2,2,3,3,4,4,5,5,6,6],"right_children":[2,4,6,8,10,12,14,-1,-1,-1,-1,-1,-1,-1,-1],"split_conditions":[6.217729E-1,6.7629284E-1,3.0557861E0,5.060994E-1,6.1236E-1,3.8177314E0,1.033952E0,2.7507892E-1,1.13290064E-1,2.5551975E-1,-0E0,3.1518903E-1,7.3874625E-3,2.1895366E-2,-0E0],"split_indices":[20,5,16,13,20,4,23,0,0,0,0,0,0,0,0],"split_type":[0,0,0,0,0,0,0,0,0,0,0,0,0,0,0],"sum_hessian":[9.66E2,5.12E2,4.54E2,1.82E2,3.3E2,4.44E2,1E1,5.1E1,1.31E2,3.26E2,4E0,4.36E2,8E0,8E0,2E0],"tree_param":{"num_deleted":"0","num_feature":"24","num_nodes":"15","size_leaf_vector":"0"}},{"base_weights":[8.598953E0,7.4392962E0,1.0422864E1,7.7067833E0,1.7160255E0,-0E0,1.0471954E1,2.658584E0,7.94841E0,3.4441574E0,-0E0,1.0511569E1,-0E0],"categories":[],"categories_nodes":[],"categories_segments":[],"categories_sizes":[],"default_left":[1,1,1,1,1,0,1,0,0,0,0,0,0],"id":58,"left_children":[1,3,5,7,9,-1,11,-1,-1,-1,-1,-1,-1],"loss_changes":[1.5178281E3,6.911094E2,2.5498828E2,4.361914E2,1.26691635E2,0E0,7.369531E1,0E0,0E0,0E0,0E0,0E0,0E0],"parents":[2147483647,0,0,1,1,2,2,3,3,4,4,6,6],"right_children":[2,4,6,8,10,-1,12,-1,-1,-1,-1,-1,-1],"split_conditions":[1.1840115E0,1.1785085E0,2.0857957E-1,3.8533658E-1,3.221362E-1,-0E0,2.0869126E0,7.975752E-2,2.384523E-1,1.0332472E-1,-0E0,3.1534708E-1,-0E0],"split_indices":[21,15,9,7,21,0,13,0,0,0,0,0,0],"split_type":[0,0,0,0,0,0,0,0,0,0,0,0,0],"sum_hessian":[9.4E2,5.86E2,3.54E2,5.56E2,3E1,1E0,3.53E2,3E1,5.26E2,1.7E1,1.3E1,3.51E2,2E0],"tree_param":{"num_deleted":"0","num_feature":"24","num_nodes":"13","size_leaf_vector":"0"}},{"base_weights":[8.258028E0,5.3540187E0,8.886112E0,5.5632453E0,-1.6577219E0,1.0102457E1,7.834422E0,4.9796886E0,1.2061697E1,1.023994E1,-0E0,-0E0,7.8970585E0],"categories":[],"categories_nodes":[],"categories_segments":[],"categories_sizes":[],"default_left":[1,1,1,1,0,1,1,0,0,0,0,0,0],"id":59,"left_children":[1,3,5,7,-1,9,11,-1,-1,-1,-1,-1,-1],"loss_changes":[1.3574492E3,3.5087744E2,5.005078E2,2.3081787E2,0E0,4.280078E2,2.9454492E2,0E0,0E0,0E0,0E0,0E0,0E0],"parents":[2147483647,0,0,1,1,2,2,3,3,5,5,6,6],"right_children":[2,4,6,8,-1,10,12,-1,-1,-1,-1,-1,-1],"split_conditions":[6.3534904E-1,6.350176E-1,2.7099714E-1,8.0186915E-1,-4.9731657E-2,2.1661363E0,2.6086148E-2,1.4939065E-1,3.618509E-1,3.071982E-1,-0E0,-0E0,2.3691174E-1],"split_indices":[5,5,18,9,0,14,21,0,0,0,0,0,0],"split_type":[0,0,0,0,0,0,0,0,0,0,0,0,0],"sum_hessian":[9.38E2,1.75E2,7.63E2,1.73E2,2E0,3.39E2,4.24E2,1.64E2,9E0,3.34E2,5E0,2E0,4.22E2],"tree_param":{"num_deleted":"0","num_feature":"24","num_nodes":"13","size_leaf_vector":"0"}},{"base_weights":[7.836205E0,6.1950984E0,9.193732E0,6.546839E0,1.2220024E0,9.5633745E0,5.9071875E0,7.110166E0,3.3359904E0,3.2962046E0,-0E0,1.5275543E0,9.71516E0,-6.537663E-1,6.7430186E0],"categories":[],"categories_nodes":[],"categories_segments":[],"categories_sizes":[],"default_left":[1,1,1,1,1,1,1,0,0,0,0,0,0,0,0],"id":60,"left_children":[1,3,5,7,9,11,13,-1,-1,-1,-1,-1,-1,-1,-1],"loss_changes":[1.7043086E3,5.9791406E2,2.1995312E2,4.8714062E2,1.1688844E2,2.9748828E2,4.6017065E2,0E0,0E0,0E0,0E0,0E0,0E0,0E0,0E0],"parents":[2147483647,0,0,1,1,2,2,3,3,4,4,5,5,6,6],"right_children":[2,4,6,8,10,12,14,-1,-1,-1,-1,-1,-1,-1,-1],"split_conditions":[9.2291975E-1,9.740983E-2,9.794782E-1,8.956285E-1,1.1129616E0,3.535176E-1,5.50438E-1,2.1330498E-1,1.0007971E-1,9.888613E-2,-0E0,4.582663E-2,2.914548E-1,-1.9612988E-2,2.0229055E-1],"split_indices":[7,2,13,15,19,9,12,0,0,0,0,0,0,0,0],"split_type":[0,0,0,0,0,0,0,0,0,0,0,0,0,0,0],"sum_hessian":[9.4E2,4.36E2,5.04E2,4.03E2,3.3E1,4.45E2,5.9E1,3.36E2,6.7E1,1.4E1,1.9E1,1.1E1,4.34E2,4E0,5.5E1],"tree_param":{"num_deleted":"0","num_feature":"24","num_nodes":"15","size_leaf_vector":"0"}},{"base_weights":[7.737219E0,6.1969852E0,8.939152E0,6.663864E0,3.5796955E0,8.997257E0,-0E0,6.973145E0,1.9922521E0,3.9728756E0,-0E0,-0E0,9.055286E0],"categories":[],"categories_nodes":[],"categories_segments":[],"categories_sizes":[],"default_left":[1,1,1,1,1,1,0,0,0,0,0,0,0],"id":61,"left_children":[1,3,5,7,9,11,-1,-1,-1,-1,-1,-1,-1],"loss_changes":[1.3978711E3,2.902871E2,3.1003125E2,3.2071875E2,1.7684778E2,3.0660547E2,0E0,0E0,0E0,0E0,0E0,0E0,0E0],"parents":[2147483647,0,0,1,1,2,2,3,3,4,4,5,5],"right_children":[2,4,6,8,10,12,-1,-1,-1,-1,-1,-1,-1],"split_conditions":[9.2291975E-1,8.956285E-1,4.366299E0,9.956576E-2,8.584823E-1,6.9894797E-1,-0E0,2.0919435E-1,5.9767563E-2,1.1918627E-1,-0E0,-0E0,2.716586E-1],"split_indices":[7,15,4,2,23,6,0,0,0,0,0,0,0],"split_type":[0,0,0,0,0,0,0,0,0,0,0,0,0],"sum_hessian":[9.62E2,4.33E2,5.29E2,3.59E2,7.4E1,5.26E2,3E0,3.32E2,2.7E1,7.1E1,3E0,3E0,5.23E2],"tree_param":{"num_deleted":"0","num_feature":"24","num_nodes":"13","size_leaf_vector":"0"}},{"base_weights":[7.5049624E0,5.4037185E0,8.455662E0,1.2272569E0,5.887755E0,8.653386E0,2.899246E0,4.5305314E0,-0E0,6.3106127E0,1.9495467E0,2.693061E0,8.815372E0,-0E0,3.801652E0],"categories":[],"categories_nodes":[],"categories_segments":[],"categories_sizes":[],"default_left":[1,1,1,1,1,1,1,0,0,0,0,0,0,0,0],"id":62,"left_children":[1,3,5,7,9,11,13,-1,-1,-1,-1,-1,-1,-1,-1],"loss_changes":[1.5190781E3,4.563623E2,4.273125E2,1.59039E2,2.584795E2,3.207539E2,1.0848038E2,0E0,0E0,0E0,0E0,0E0,0E0,0E0,0E0],"parents":[2147483647,0,0,1,1,2,2,3,3,4,4,5,5,6,6],"right_children":[2,4,6,8,10,12,14,-1,-1,-1,-1,-1,-1,-1,-1],"split_conditions":[1.8078625E-1,4.1620904E-1,2.2981272E0,4.5538932E-1,8.840916E-1,2.038603E-1,2.502676E0,1.3591594E-1,-0E0,1.8931837E-1,5.84864E-2,8.079183E-2,2.6446116E-1,-0E0,1.14049554E-1],"split_indices":[20,6,19,15,15,11,19,0,0,0,0,0,0,0,0],"split_type":[0,0,0,0,0,0,0,0,0,0,0,0,0,0,0],"sum_hessian":[9.32E2,3E2,6.32E2,3.6E1,2.64E2,6.06E2,2.6E1,9E0,2.7E1,2.33E2,3.1E1,2E1,5.86E2,4E0,2.2E1],"tree_param":{"num_deleted":"0","num_feature":"24","num_nodes":"15","size_leaf_vector":"0"}},{"base_weights":[7.277916E0,4.912818E0,8.163062E0,1.7844812E0,5.4742403E0,9.677779E0,7.0561566E0,3.2227144E0,-0E0,9.866519E0,4.4633584E0,-0E0,9.756107E0,-0E0,7.2165256E0],"categories":[],"categories_nodes":[],"categories_segments":[],"categories_sizes":[],"default_left":[1,1,1,1,1,1,1,0,0,0,0,0,0,0,0],"id":63,"left_children":[1,3,5,7,9,11,13,-1,-1,-1,-1,-1,-1,-1,-1],"loss_changes":[1.6660664E3,3.1174414E2,7.072031E2,1.7271338E2,6.3082275E2,3.257129E2,3.598672E2,0E0,0E0,0E0,0E0,0E0,0E0,0E0,0E0],"parents":[2147483647,0,0,1,1,2,2,3,3,4,4,5,5,6,6],"right_children":[2,4,6,8,10,12,14,-1,-1,-1,-1,-1,-1,-1,-1],"split_conditions":[7.528758E-1,4.1620904E-1,2.5368142E-1,1.858668E-1,2.4061829E-2,1.5200049E-2,6.8381524E-1,9.668143E-2,-0E0,2.9599556E-1,1.3390075E-1,-0E0,2.926832E-1,-0E0,2.1649577E-1],"split_indices":[5,6,19,10,3,2,6,0,0,0,0,0,0,0,0],"split_type":[0,0,0,0,0,0,0,0,0,0,0,0,0,0,0],"sum_hessian":[9.48E2,2.67E2,6.81E2,4.7E1,2.2E2,2.75E2,4.06E2,3E1,1.7E1,3.5E1,1.85E2,1E0,2.74E2,1.1E1,3.95E2],"tree_param":{"num_deleted":"0","num_feature":"24","num_nodes":"15","size_leaf_vector":"0"}},{"base_weights":[7.1077332E0,4.733266E0,7.7890444E0,3.7453551E0,7.512494E0,8.437731E0,6.279638E0,6.4079714E0,2.2441149E0,-0E0,7.966771E0,8.539197E0,-0E0,-0E0,6.4205832E0],"categories":[],"categories_nodes":[],"categories_segments":[],"categories_sizes":[],"default_left":[1,1,1,1,1,1,1,0,0,0,0,0,0,0,0],"id":64,"left_children":[1,3,5,7,9,11,13,-1,-1,-1,-1,-1,-1,-1,-1],"loss_changes":[1.204418E3,3.3255713E2,3.2772266E2,4.8291797E2,1.6470142E2,5.4808984E2,2.8893262E2,0E0,0E0,0E0,0E0,0E0,0E0,0E0,0E0],"parents":[2147483647,0,0,1,1,2,2,3,3,4,4,5,5,6,6],"right_children":[2,4,6,8,10,12,14,-1,-1,-1,-1,-1,-1,-1,-1],"split_conditions":[7.1781874E-1,5.1526254E-1,3.6087698E-1,5.452438E-1,3.3998036E-1,3.8177314E0,2.8567943E-3,1.9223914E-1,6.7323446E-2,-0E0,2.3900312E-1,2.561759E-1,-0E0,-0E0,1.9261749E-1],"split_indices":[7,20,16,15,5,4,0,0,0,0,0,0,0,0,0],"split_type":[0,0,0,0,0,0,0,0,0,0,0,0,0,0,0],"sum_hessian":[9.32E2,2.17E2,7.15E2,1.68E2,4.9E1,4.86E2,2.29E2,5.4E1,1.14E2,3E0,4.6E1,4.82E2,4E0,3E0,2.26E2],"tree_param":{"num_deleted":"0","num_feature":"24","num_nodes":"15","size_leaf_vector":"0"}},{"base_weights":[6.956665E0,5.694416E0,8.359963E0,5.895155E0,-0E0,8.443779E0,-0E0,6.399196E0,2.8011677E0,-2.9805212E0,1.2347217E0,1.7794222E0,8.628478E0],"categories":[],"categories_nodes":[],"categories_segments":[],"categories_sizes":[],"default_left":[1,1,1,1,1,1,0,0,0,0,0,0,0],"id":65,"left_children":[1,3,5,7,9,11,-1,-1,-1,-1,-1,-1,-1],"loss_changes":[1.3240508E3,6.3161914E2,3.3099414E2,5.6027734E2,8.415848E1,3.0240234E2,0E0,0E0,0E0,0E0,0E0,0E0,0E0],"parents":[2147483647,0,0,1,1,2,2,3,3,4,4,5,5],"right_children":[2,4,6,8,10,12,-1,-1,-1,-1,-1,-1,-1],"split_conditions":[1.0579231E0,1.0235231E0,4.366299E0,9.0867746E-1,2.6411885E-1,6.223146E-1,-0E0,1.9197588E-1,8.403503E-2,-8.941563E-2,3.704165E-2,5.3382665E-2,2.5885433E-1],"split_indices":[5,5,4,15,16,11,0,0,0,0,0,0,0],"split_type":[0,0,0,0,0,0,0,0,0,0,0,0,0],"sum_hessian":[9.45E2,5.09E2,4.36E2,4.93E2,1.6E1,4.32E2,4E0,4.17E2,7.6E1,6E0,1E1,1.5E1,4.17E2],"tree_param":{"num_deleted":"0","num_feature":"24","num_nodes":"13","size_leaf_vector":"0"}},{"base_weights":[6.666258E0,3.6248884E0,7.3531775E0,3.955981E0,-0E0,6.4061575E0,8.6438875E0,4.6213794E0,6.2946993E-1,-9.7280705E-1,6.484253E-1,6.6596766E0,5.23517E-1,-0E0,8.698967E0],"categories":[],"categories_nodes":[],"categories_segments":[],"categories_sizes":[],"default_left":[1,1,1,1,1,1,1,0,0,0,0,0,0,0,0],"id":66,"left_children":[1,3,5,7,9,11,13,-1,-1,-1,-1,-1,-1,-1,-1],"loss_changes":[1.6927969E3,2.3395264E2,5.3940625E2,2.5915967E2,1.2143774E1,5.229668E2,2.1710742E2,0E0,0E0,0E0,0E0,0E0,0E0,0E0,0E0],"parents":[2147483647,0,0,1,1,2,2,3,3,4,4,5,5,6,6],"right_children":[2,4,6,8,10,12,14,-1,-1,-1,-1,-1,-1,-1,-1],"split_conditions":[7.014307E-1,6.820663E-1,1.592824E0,1.0111777E0,6.177149E-1,1.2216251E0,4.4729435E-1,1.3864137E-1,1.8884098E-2,-2.9184211E-2,1.9452758E-2,1.997903E-1,1.570551E-2,-0E0,2.60969E-1],"split_indices":[7,7,21,14,13,13,10,0,0,0,0,0,0,0,0],"split_type":[0,0,0,0,0,0,0,0,0,0,0,0,0,0,0],"sum_hessian":[9.33E2,1.79E2,7.54E2,1.65E2,1.4E1,4.49E2,3.05E2,1.32E2,3.3E1,8E0,6E0,4.27E2,2.2E1,1E0,3.04E2],"tree_param":{"num_deleted":"0","num_feature":"24","num_nodes":"15","size_leaf_vector":"0"}},{"base_weights":[6.4461575E0,5.4852996E0,8.089443E0,1.8526844E0,5.7543087E0,8.218944E0,-0E0,2.8376355E0,-1.5639025E0,6.0065436E0,1.4426923E0,9.746203E0,7.033183E0,7.620697E-1,-0E0],"categories":[],"categories_nodes":[],"categories_segments":[],"categories_sizes":[],"default_left":[1,1,1,1,1,1,1,0,0,0,0,0,0,1,1],"id":67,"left_children":[1,3,5,7,9,11,-1,-1,-1,-1,-1,-1,-1,-1,-1],"loss_changes":[1.161168E3,4.2943164E2,3.116953E2,1.987073E2,4.508457E2,1.6554883E2,2.0326257E0,0E0,0E0,0E0,0E0,0E0,0E0,0E0,0E0],"parents":[2147483647,0,0,1,1,2,2,3,3,4,4,5,5,6,6],"right_children":[2,4,6,8,10,12,-1,-1,-1,-1,-1,-1,-1,-1,-1],"split_conditions":[1.1813848E0,1.0512994E-2,3.8177314E0,1.1583858E0,2.3138885E0,2.3014154E-1,-0E0,8.512907E-2,-4.6917073E-2,1.801963E-1,4.328077E-2,2.9238608E-1,2.109955E-1,2.286209E-2,-0E0],"split_indices":[6,0,4,4,19,18,6,0,0,0,0,0,0,2147483647,2147483647],"split_type":[0,0,0,0,0,0,0,0,0,0,0,0,0,0,0],"sum_hessian":[9.48E2,6.1E2,3.38E2,4.8E1,5.62E2,3.32E2,6E0,4.2E1,6E0,5.26E2,3.6E1,1.33E2,1.99E2,2E0,4E0],"tree_param":{"num_deleted":"2","num_feature":"24","num_nodes":"15","size_leaf_vector":"0"}},{"base_weights":[6.3592587E0,2.8531442E0,6.749363E0,5.44028E0,1.1201489E0,8.154375E0,5.8985386E0,6.4068108E0,-0E0,2.1281004E0,-0E0,8.346166E0,-0E0,-0E0,6.0114336E0],"categories":[],"categories_nodes":[],"categories_segments":[],"categories_sizes":[],"default_left":[1,1,1,1,1,1,1,0,0,0,0,0,0,0,0],"id":68,"left_children":[1,3,5,7,9,11,13,-1,-1,-1,-1,-1,-1,-1,-1],"loss_changes":[1.0873203E3,3.2369214E2,6.6827734E2,2.1270996E2,1.15582886E2,5.6150586E2,3.3729688E2,0E0,0E0,0E0,0E0,0E0,0E0,0E0,0E0],"parents":[2147483647,0,0,1,1,2,2,3,3,4,4,5,5,6,6],"right_children":[2,4,6,8,10,12,14,-1,-1,-1,-1,-1,-1,-1,-1],"split_conditions":[2.3333485E-1,5.720464E-1,2.521091E-1,3.0571908E-1,3.408335E-2,3.3778424E0,6.716506E-2,1.9220431E-1,-0E0,6.384301E-2,-0E0,2.5038496E-1,-0E0,-0E0,1.80343E-1],"split_indices":[11,15,19,21,20,4,21,0,0,0,0,0,0,0,0],"split_type":[0,0,0,0,0,0,0,0,0,0,0,0,0,0,0],"sum_hessian":[9.55E2,1.02E2,8.53E2,3.5E1,6.7E1,3.08E2,5.45E2,3E1,5E0,4.3E1,2.4E1,3.02E2,6E0,1.1E1,5.34E2],"tree_param":{"num_deleted":"0","num_feature":"24","num_nodes":"15","size_leaf_vector":"0"}},{"base_weights":[6.0988445E0,2.5073748E0,6.5342646E0,3.4246926E0,-0E0,8.826988E0,5.740133E0,3.8159984E-1,4.856993E0,1.0408273E0,-1.6018438E0,-0E0,9.108322E0,5.9652815E0,1.2588986E0],"categories":[],"categories_nodes":[],"categories_segments":[],"categories_sizes":[],"default_left":[1,1,1,1,1,1,1,0,0,0,0,0,0,0,0],"id":69,"left_children":[1,3,5,7,9,11,13,-1,-1,-1,-1,-1,-1,-1,-1],"loss_changes":[1.2278125E3,2.9804504E2,1.1101758E3,2.5203448E2,5.3712284E1,3.429463E2,4.6324023E2,0E0,0E0,0E0,0E0,0E0,0E0,0E0,0E0],"parents":[2147483647,0,0,1,1,2,2,3,3,4,4,5,5,6,6],"right_children":[2,4,6,8,10,12,14,-1,-1,-1,-1,-1,-1,-1,-1],"split_conditions":[5.4351664E-1,4.043089E-2,2.1443991E-1,1.7892526E-1,2.3899543E-1,2.0709208E-1,1.124795E0,1.1447995E-2,1.457098E-1,3.1224817E-2,-4.8055314E-2,-0E0,2.7324966E-1,1.7895845E-1,3.7766956E-2],"split_indices":[6,2,19,23,21,11,13,0,0,0,0,0,0,0,0],"split_type":[0,0,0,0,0,0,0,0,0,0,0,0,0,0,0],"sum_hessian":[9.15E2,1.05E2,8.1E2,8.1E1,2.4E1,1.98E2,6.12E2,3.1E1,5E1,9E0,1.5E1,8E0,1.9E2,5.78E2,3.4E1],"tree_param":{"num_deleted":"0","num_feature":"24","num_nodes":"15","size_leaf_vector":"0"}},{"base_weights":[5.837573E0,4.6027064E0,7.1482353E0,3.076256E0,5.4596496E0,9.333687E0,6.2264357E0,1.4791703E-1,3.7832572E0,-0E0,5.600504E0,1.0052377E1,2.503562E0,6.5763774E0,1.3101801E0],"categories":[],"categories_nodes":[],"categories_segments":[],"categories_sizes":[],"default_left":[1,1,1,1,1,1,1,0,0,0,0,0,0,0,0],"id":70,"left_children":[1,3,5,7,9,11,13,-1,-1,-1,-1,-1,-1,-1,-1],"loss_changes":[1.2572422E3,4.614004E2,5.111914E2,3.1907727E2,3.2844824E2,3.222705E2,3.9449707E2,0E0,0E0,0E0,0E0,0E0,0E0,0E0,0E0],"parents":[2147483647,0,0,1,1,2,2,3,3,4,4,5,5,6,6],"right_children":[2,4,6,8,10,12,14,-1,-1,-1,-1,-1,-1,-1,-1],"split_conditions":[6.217729E-1,7.2308016E-1,2.080273E-1,1.453597E-1,6.4098847E-1,8.479425E0,1.0107801E0,4.437511E-3,1.1349771E-1,-0E0,1.6801511E-1,3.015713E-1,7.510686E-2,1.9729131E-1,3.93054E-2],"split_indices":[20,7,19,17,6,8,13,0,0,0,0,0,0,0,0],"split_type":[0,0,0,0,0,0,0,0,0,0,0,0,0,0,0],"sum_hessian":[9.51E2,5.01E2,4.5E2,1.91E2,3.1E2,1.23E2,3.27E2,4.3E1,1.48E2,5E0,3.05E2,1.08E2,1.5E1,3.01E2,2.6E1],"tree_param":{"num_deleted":"0","num_feature":"24","num_nodes":"15","size_leaf_vector":"0"}},{"base_weights":[5.778222E0,4.3799205E0,6.896307E0,4.704496E0,-0E0,8.689237E0,5.8415737E0,5.066829E0,2.2203806E-1,9.1090685E-1,-1.5673198E0,-0E0,8.819065E0,-0E0,6.0331893E0],"categories":[],"categories_nodes":[],"categories_segments":[],"categories_sizes":[],"default_left":[1,1,1,1,1,1,1,0,0,0,0,0,0,0,0],"id":71,"left_children":[1,3,5,7,9,11,13,-1,-1,-1,-1,-1,-1,-1,-1],"loss_changes":[1.1839316E3,6.570469E2,5.910664E2,5.3975586E2,5.0107002E1,2.4791895E2,4.2442285E2,0E0,0E0,0E0,0E0,0E0,0E0,0E0,0E0],"parents":[2147483647,0,0,1,1,2,2,3,3,4,4,5,5,6,6],"right_children":[2,4,6,8,10,12,14,-1,-1,-1,-1,-1,-1,-1,-1],"split_conditions":[9.2291975E-1,1.2038128E0,2.3037699E-1,9.740983E-2,2.6816672E-1,1.5336033E-2,3.1296253E-1,1.5200487E-1,6.6611418E-3,2.7327204E-2,-4.701959E-2,-0E0,2.6457193E-1,-0E0,1.8099567E-1],"split_indices":[7,13,18,2,23,2,23,0,0,0,0,0,0,0,0],"split_type":[0,0,0,0,0,0,0,0,0,0,0,0,0,0,0],"sum_hessian":[9.29E2,4.24E2,5.05E2,3.97E2,2.7E1,1.76E2,3.29E2,3.63E2,3.4E1,1.3E1,1.4E1,2E0,1.74E2,9E0,3.2E2],"tree_param":{"num_deleted":"0","num_feature":"24","num_nodes":"15","size_leaf_vector":"0"}},{"base_weights":[5.611182E0,3.6051998E0,6.4280405E0,4.0951796E0,4.8919868E-1,8.3184E0,5.640169E0,4.5551944E0,9.335071E-2,-0E0,3.9454973E0,8.522272E0,-0E0,5.7920833E0,2.5036622E-2],"categories":[],"categories_nodes":[],"categories_segments":[],"categories_sizes":[],"default_left":[1,1,1,1,1,1,1,0,0,0,0,0,0,0,0],"id":72,"left_children":[1,3,5,7,9,11,13,-1,-1,-1,-1,-1,-1,-1,-1],"loss_changes":[1.299125E3,3.350957E2,6.2821875E2,3.436045E2,5.9162422E1,4.086963E2,2.890498E2,0E0,0E0,0E0,0E0,0E0,0E0,0E0,0E0],"parents":[2147483647,0,0,1,1,2,2,3,3,4,4,5,5,6,6],"right_children":[2,4,6,8,10,12,14,-1,-1,-1,-1,-1,-1,-1,-1],"split_conditions":[5.698784E-1,9.840205E-1,2.0746197E-1,4.959054E-1,4.4530535E-1,2.8414923E-1,2.4795656E0,1.3665582E-1,2.8005212E-3,-0E0,1.18364915E-1,2.5566816E-1,-0E0,1.737625E-1,7.510986E-4],"split_indices":[11,15,18,11,9,17,16,0,0,0,0,0,0,0,0],"split_type":[0,0,0,0,0,0,0,0,0,0,0,0,0,0,0],"sum_hessian":[9.35E2,2.8E2,6.55E2,2.36E2,4.4E1,1.81E2,4.74E2,2.07E2,2.9E1,4.1E1,3E0,1.78E2,3E0,4.58E2,1.6E1],"tree_param":{"num_deleted":"0","num_feature":"24","num_nodes":"15","size_leaf_vector":"0"}},{"base_weights":[5.4272647E0,2.277374E0,5.7692857E0,3.0450218E0,-2.9683928E-3,5.9659553E0,1.826807E0,-0E0,3.3493476E0,-2.156282E0,3.39061E-2,-0E0,6.0330653E0,-0E0,4.356346E0],"categories":[],"categories_nodes":[],"categories_segments":[],"categories_sizes":[],"default_left":[1,1,1,1,1,1,1,0,0,0,0,0,0,0,0],"id":73,"left_children":[1,3,5,7,9,11,13,-1,-1,-1,-1,-1,-1,-1,-1],"loss_changes":[8.455137E2,2.385304E2,4.8879297E2,1.15670044E2,4.4184933E1,3.946582E2,3.0643683E2,0E0,0E0,0E0,0E0,0E0,0E0,0E0,0E0],"parents":[2147483647,0,0,1,1,2,2,3,3,4,4,5,5,6,6],"right_children":[2,4,6,8,10,12,14,-1,-1,-1,-1,-1,-1,-1,-1],"split_conditions":[2.3336008E-1,7.3793703E-1,1.1854879E0,2.6590276E-1,5.5212665E-1,3.3780253E-1,1.3871405E0,-0E0,1.0048042E-1,-6.468846E-2,1.017183E-3,-0E0,1.8099196E-1,-0E0,1.3069038E-1],"split_indices":[11,4,13,6,6,5,13,0,0,0,0,0,0,0,0],"split_type":[0,0,0,0,0,0,0,0,0,0,0,0,0,0,0],"sum_hessian":[9.51E2,1E2,8.51E2,8.1E1,1.9E1,8.05E2,4.6E1,4E0,7.7E1,8E0,1.1E1,7E0,7.98E2,2.3E1,2.3E1],"tree_param":{"num_deleted":"0","num_feature":"24","num_nodes":"15","size_leaf_vector":"0"}},{"base_weights":[5.280137E0,3.3442426E0,5.9947114E0,7.735406E0,2.669309E0,6.4018264E0,2.9507148E0,-0E0,8.221551E0,1.2100288E0,4.0965347E0,6.495412E0,-0E0,-0E0,3.7491055E0],"categories":[],"categories_nodes":[],"categories_segments":[],"categories_sizes":[],"default_left":[1,1,1,1,1,1,1,0,0,0,0,0,0,0,0],"id":74,"left_children":[1,3,5,7,9,11,13,-1,-1,-1,-1,-1,-1,-1,-1],"loss_changes":[1.0841797E3,5.448435E2,6.2421094E2,1.6900684E2,3.7691467E2,4.1739844E2,2.7661206E2,0E0,0E0,0E0,0E0,0E0,0E0,0E0,0E0],"parents":[2147483647,0,0,1,1,2,2,3,3,4,4,5,5,6,6],"right_children":[2,4,6,8,10,12,14,-1,-1,-1,-1,-1,-1,-1,-1],"split_conditions":[4.4559428E-1,4.3741846E-1,1.0850188E0,8.5681066E-2,6.895416E-1,3.8177314E0,9.979515E-1,-0E0,2.4664652E-1,3.6300864E-2,1.2289604E-1,1.9486235E-1,-0E0,-0E0,1.1247316E-1],"split_indices":[9,14,19,23,7,4,18,0,0,0,0,0,0,0,0],"split_type":[0,0,0,0,0,0,0,0,0,0,0,0,0,0,0],"sum_hessian":[9.39E2,2.63E2,6.76E2,2.9E1,2.34E2,5.89E2,8.7E1,1E0,2.8E1,1.24E2,1.1E2,5.82E2,7E0,1.4E1,7.3E1],"tree_param":{"num_deleted":"0","num_feature":"24","num_nodes":"15","size_leaf_vector":"0"}},{"base_weights":[5.190989E0,3.987165E0,6.194576E0,4.152898E0,-0E0,7.3437543E0,4.958081E0,4.4151297E0,2.7836997E-3,-2.35134E0,1.5911319E0,7.46602E0,-0E0,5.1893654E0,-0E0],"categories":[],"categories_nodes":[],"categories_segments":[],"categories_sizes":[],"default_left":[1,1,1,1,1,1,1,0,0,0,0,0,0,0,0],"id":75,"left_children":[1,3,5,7,9,11,13,-1,-1,-1,-1,-1,-1,-1,-1],"loss_changes":[9.0524023E2,3.237207E2,4.1763867E2,3.7795557E2,7.657476E1,2.8636328E2,1.980503E2,0E0,0E0,0E0,0E0,0E0,0E0,0E0,0E0],"parents":[2147483647,0,0,1,1,2,2,3,3,4,4,5,5,6,6],"right_children":[2,4,6,8,10,12,14,-1,-1,-1,-1,-1,-1,-1,-1],"split_conditions":[9.2291975E-1,9.0753037E-1,2.667458E-1,2.1749713E0,1.0045085E0,2.3633428E0,9.6579015E-1,1.3245389E-1,8.351099E-5,-7.05402E-2,4.7733955E-2,2.239806E-1,-0E0,1.5568095E-1,-0E0],"split_indices":[7,7,18,19,4,14,15,0,0,0,0,0,0,0,0],"split_type":[0,0,0,0,0,0,0,0,0,0,0,0,0,0,0],"sum_hessian":[9.47E2,4.43E2,5.04E2,4.27E2,1.6E1,2.49E2,2.55E2,3.97E2,3E1,8E0,8E0,2.46E2,3E0,2.4E2,1.5E1],"tree_param":{"num_deleted":"0","num_feature":"24","num_nodes":"15","size_leaf_vector":"0"}},{"base_weights":[5.0442414E0,1.9133698E0,5.3638377E0,4.619976E0,1.6794038E-1,6.381696E0,4.5607595E0,-0E0,5.806711E0,9.4084626E-1,-9.0708053E-1,2.6644504E-2,6.6028E0,-5.929057E-2,4.6311207E0],"categories":[],"categories_nodes":[],"categories_segments":[],"categories_sizes":[],"default_left":[1,1,1,1,1,1,1,0,0,0,0,0,0,0,0],"id":76,"left_children":[1,3,5,7,9,11,13,-1,-1,-1,-1,-1,-1,-1,-1],"loss_changes":[7.7213477E2,3.4951385E2,4.2371484E2,1.9983838E2,5.4716965E1,3.6666992E2,2.4966895E2,0E0,0E0,0E0,0E0,0E0,0E0,0E0,0E0],"parents":[2147483647,0,0,1,1,2,2,3,3,4,4,5,5,6,6],"right_children":[2,4,6,8,10,12,14,-1,-1,-1,-1,-1,-1,-1,-1],"split_conditions":[2.3336008E-1,5.37447E-1,2.6830065E-1,3.722949E-1,2.0849022E-1,1.2025821E-1,3.7404965E-3,-0E0,1.7420132E-1,2.8225387E-2,-2.7212415E-2,7.993351E-4,1.98084E-1,-1.778717E-3,1.3893361E-1],"split_indices":[11,14,18,7,9,22,0,0,0,0,0,0,0,0,0],"split_type":[0,0,0,0,0,0,0,0,0,0,0,0,0,0,0],"sum_hessian":[9.31E2,9.3E1,8.38E2,3.1E1,6.2E1,3.54E2,4.84E2,6E0,2.5E1,4.7E1,1.5E1,1.5E1,3.39E2,3E0,4.81E2],"tree_param":{"num_deleted":"0","num_feature":"24","num_nodes":"15","size_leaf_vector":"0"}},{"base_weights":[4.562809E0,3.6975973E0,5.9366183E0,3.8503277E0,-8.436428E-2,2.2521996E0,6.2785926E0,4.462076E0,2.5478303E0,-0E0,-2.4939148E0,3.4778986E0,-0E0,6.3648243E0,-0E0],"categories":[],"categories_nodes":[],"categories_segments":[],"categories_sizes":[],"default_left":[1,1,1,1,1,1,1,0,0,0,0,0,0,0,0],"id":77,"left_children":[1,3,5,7,9,11,13,-1,-1,-1,-1,-1,-1,-1,-1],"loss_changes":[9.0299805E2,4.197798E2,2.5609473E2,3.029004E2,5.272791E1,1.4241881E2,1.8629492E2,0E0,0E0,0E0,0E0,0E0,0E0,0E0,0E0],"parents":[2147483647,0,0,1,1,2,2,3,3,4,4,5,5,6,6],"right_children":[2,4,6,8,10,12,14,-1,-1,-1,-1,-1,-1,-1,-1],"split_conditions":[1.1184957E0,1.4234221E0,8.213785E-1,4.6748805E-1,3.0570776E0,7.267866E-1,2.2059124E0,1.3386229E-1,7.643491E-2,-0E0,-7.481744E-2,1.04336955E-1,-0E0,1.9094473E-1,-0E0],"split_indices":[21,5,23,16,9,23,14,0,0,0,0,0,0,0,0],"split_type":[0,0,0,0,0,0,0,0,0,0,0,0,0,0,0],"sum_hessian":[9.48E2,5.94E2,3.54E2,5.76E2,1.8E1,3.6E1,3.18E2,3.79E2,1.97E2,1.1E1,7E0,2.6E1,1E1,3.14E2,4E0],"tree_param":{"num_deleted":"0","num_feature":"24","num_nodes":"15","size_leaf_vector":"0"}},{"base_weights":[4.6891675E0,1.0615376E0,4.9371257E0,-0E0,3.5171504E0,7.0148134E0,4.470919E0,-8.584023E-1,7.86535E-1,5.2877774E0,-0E0,7.2883234E0,-0E0,4.6271567E0,-0E0],"categories":[],"categories_nodes":[],"categories_segments":[],"categories_sizes":[],"default_left":[1,1,1,1,1,1,1,0,0,0,0,0,0,0,0],"id":78,"left_children":[1,3,5,7,9,11,13,-1,-1,-1,-1,-1,-1,-1,-1],"loss_changes":[7.217422E2,2.022696E2,5.741836E2,3.2945564E1,1.550564E2,4.2940576E2,4.588711E2,0E0,0E0,0E0,0E0,0E0,0E0,0E0,0E0],"parents":[2147483647,0,0,1,1,2,2,3,3,4,4,5,5,6,6],"right_children":[2,4,6,8,10,12,14,-1,-1,-1,-1,-1,-1,-1,-1],"split_conditions":[4.6878627E-1,3.4796616E-1,1.900642E-1,2.466746E-2,3.178279E-2,3.8072221E0,1.149279E0,-2.575207E-2,2.359605E-2,1.5863332E-1,-0E0,2.186497E-1,-0E0,1.388147E-1,-0E0],"split_indices":[7,18,19,0,0,4,15,0,0,0,0,0,0,0,0],"split_type":[0,0,0,0,0,0,0,0,0,0,0,0,0,0,0],"sum_hessian":[9.43E2,6.6E1,8.77E2,4.5E1,2.1E1,1.49E2,7.28E2,2.6E1,1.9E1,1.4E1,7E0,1.46E2,3E0,7.01E2,2.7E1],"tree_param":{"num_deleted":"0","num_feature":"24","num_nodes":"15","size_leaf_vector":"0"}},{"base_weights":[4.4160447E0,3.0687995E0,5.1663036E0,3.5013173E0,4.1063076E-1,5.254808E0,-1.0164765E0,2.575593E0,5.7681265E0,1.7109532E0,-0E0,6.6676745E0,4.464053E0],"categories":[],"categories_nodes":[],"categories_segments":[],"categories_sizes":[],"default_left":[1,1,1,1,1,1,0,0,0,0,0,0,0],"id":79,"left_children":[1,3,5,7,9,11,-1,-1,-1,-1,-1,-1,-1],"loss_changes":[7.7024414E2,3.248755E2,4.1973047E2,4.330288E2,5.3242744E1,3.9467773E2,0E0,0E0,0E0,0E0,0E0,0E0,0E0],"parents":[2147483647,0,0,1,1,2,2,3,3,4,4,5,5],"right_children":[2,4,6,8,10,12,-1,-1,-1,-1,-1,-1,-1],"split_conditions":[2.5924152E-1,9.2480135E-1,3.8177314E0,6.863668E-1,1.765021E-1,2.2998479E-1,-3.0494295E-2,7.726779E-2,1.7304379E-1,5.1328596E-2,-0E0,2.0003024E-1,1.339216E-1],"split_indices":[20,15,4,15,18,18,0,0,0,0,0,0,0],"split_type":[0,0,0,0,0,0,0,0,0,0,0,0,0],"sum_hessian":[9.47E2,3.51E2,5.96E2,2.95E2,5.6E1,5.91E2,5E0,2.18E2,7.7E1,2E1,3.6E1,1.99E2,3.92E2],"tree_param":{"num_deleted":"0","num_feature":"24","num_nodes":"13","size_leaf_vector":"0"}},{"base_weights":[4.365697E0,3.2098958E0,5.221551E0,3.6355653E0,-0E0,5.378489E0,-0E0,-0E0,3.9640884E0,9.0931803E-1,-1.0380459E0,5.4873514E0,-0E0,2.39361E0,-6.0585403E-1],"categories":[],"categories_nodes":[],"categories_segments":[],"categories_sizes":[],"default_left":[1,1,1,1,1,1,1,0,0,0,0,0,0,0,0],"id":80,"left_children":[1,3,5,7,9,11,13,-1,-1,-1,-1,-1,-1,-1,-1],"loss_changes":[7.4942773E2,5.08646E2,3.70125E2,3.7825488E2,5.1517883E1,3.7125293E2,5.328787E1,0E0,0E0,0E0,0E0,0E0,0E0,0E0,0E0],"parents":[2147483647,0,0,1,1,2,2,3,3,4,4,5,5,6,6],"right_children":[2,4,6,8,10,12,14,-1,-1,-1,-1,-1,-1,-1,-1],"split_conditions":[3.7489277E-1,9.849838E-1,2.3380978E0,1.0512994E-2,4.533792E-1,3.8177314E0,5.618373E-1,-0E0,1.1892265E-1,2.727954E-2,-3.1141376E-2,1.6462053E-1,-0E0,7.18083E-2,-1.817562E-2],"split_indices":[20,15,19,0,22,4,10,0,0,0,0,0,0,0,0],"split_type":[0,0,0,0,0,0,0,0,0,0,0,0,0,0,0],"sum_hessian":[9.52E2,4.18E2,5.34E2,3.64E2,5.4E1,5.16E2,1.8E1,3.4E1,3.3E2,3.8E1,1.6E1,5.08E2,8E0,7E0,1.1E1],"tree_param":{"num_deleted":"0","num_feature":"24","num_nodes":"15","size_leaf_vector":"0"}},{"base_weights":[4.3832726E0,3.559774E0,5.4138646E0,3.7157757E0,-5.485025E-1,5.644667E0,-0E0,4.5680758E-1,3.9260826E0,-4.4461184E0,2.3511937E0,5.7030168E0,-0E0,-5.3342974E-1,-0E0],"categories":[],"categories_nodes":[],"categories_segments":[],"categories_sizes":[],"default_left":[1,1,1,1,1,1,1,0,0,0,0,0,0,0,0],"id":81,"left_children":[1,3,5,7,9,11,13,-1,-1,-1,-1,-1,-1,-1,-1],"loss_changes":[5.982988E2,4.1473047E2,5.646963E2,2.7187793E2,2.4406042E2,1.3045215E2,3.556841E0,0E0,0E0,0E0,0E0,0E0,0E0,0E0,0E0],"parents":[2147483647,0,0,1,1,2,2,3,3,4,4,5,5,6,6],"right_children":[2,4,6,8,10,12,14,-1,-1,-1,-1,-1,-1,-1,-1],"split_conditions":[8.539632E-1,7.3119605E-1,1.7972577E0,3.9079928E-1,9.638498E-1,2.9648092E0,1.1933658E0,1.3704227E-2,1.1778247E-1,-1.3338354E-1,7.053581E-2,1.710905E-1,-0E0,-1.6002892E-2,-0E0],"split_indices":[21,21,19,6,12,5,6,0,0,0,0,0,0,0,0],"split_type":[0,0,0,0,0,0,0,0,0,0,0,0,0,0,0],"sum_hessian":[9.49E2,5.42E2,4.07E2,5.27E2,1.5E1,3.92E2,1.5E1,3.8E1,4.89E2,9E0,6E0,3.88E2,4E0,1.1E1,4E0],"tree_param":{"num_deleted":"0","num_feature":"24","num_nodes":"15","size_leaf_vector":"0"}},{"base_weights":[4.036978E0,2.4835868E0,4.6016355E0,4.654889E0,1.6236534E0,6.0998673E0,4.062992E0,5.355489E-1,6.3546934E0,-0E0,2.0153275E0,6.332339E0,-0E0,-1.5419345E0,4.23211E0],"categories":[],"categories_nodes":[],"categories_segments":[],"categories_sizes":[],"default_left":[1,1,1,1,1,1,1,0,0,0,0,0,0,0,0],"id":82,"left_children":[1,3,5,7,9,11,13,-1,-1,-1,-1,-1,-1,-1,-1],"loss_changes":[6.564502E2,3.4949146E2,3.0066895E2,3.2272815E2,1.5273712E2,3.5513135E2,5.4464844E2,0E0,0E0,0E0,0E0,0E0,0E0,0E0,0E0],"parents":[2147483647,0,0,1,1,2,2,3,3,4,4,5,5,6,6],"right_children":[2,4,6,8,10,12,14,-1,-1,-1,-1,-1,-1,-1,-1],"split_conditions":[4.5455122E-1,2.4061829E-2,2.1125385E-1,1.476391E-2,1.453597E-1,3.8072221E0,5.8602E-1,1.6066467E-2,1.9064079E-1,-0E0,6.0459822E-2,1.8997017E-1,-0E0,-4.6258032E-2,1.269633E-1],"split_indices":[9,3,19,0,17,4,6,0,0,0,0,0,0,0,0],"split_type":[0,0,0,0,0,0,0,0,0,0,0,0,0,0,0],"sum_hessian":[9.28E2,2.59E2,6.69E2,6.5E1,1.94E2,1.63E2,5.06E2,2.3E1,4.2E1,3.1E1,1.63E2,1.6E2,3E0,1.1E1,4.95E2],"tree_param":{"num_deleted":"0","num_feature":"24","num_nodes":"15","size_leaf_vector":"0"}},{"base_weights":[4.1942225E0,4.471447E0,1.5505321E-1,4.6465E0,-0E0,2.1855927E0,-5.5037725E-1,1.0332363E0,4.827678E0,-1.5438893E0,2.213541E0,-0E0,2.9286764E0,-1.7212163E0,1.0911735E0],"categories":[],"categories_nodes":[],"categories_segments":[],"categories_sizes":[],"default_left":[1,1,1,1,1,1,1,0,0,0,0,0,0,0,0],"id":83,"left_children":[1,3,5,7,9,11,13,-1,-1,-1,-1,-1,-1,-1,-1],"loss_changes":[9.405254E2,5.9463086E2,1.2833115E2,4.144004E2,1.4454166E2,5.879949E1,9.710272E1,0E0,0E0,0E0,0E0,0E0,0E0,0E0,0E0],"parents":[2147483647,0,0,1,1,2,2,3,3,4,4,5,5,6,6],"right_children":[2,4,6,8,10,12,14,-1,-1,-1,-1,-1,-1,-1,-1],"split_conditions":[1.1854879E0,2.3342452E0,2.557287E-1,4.1620904E-1,3.0521595E0,1.8025076E-2,2.272841E0,3.0997088E-2,1.4483035E-1,-4.6316676E-2,6.640623E-2,-0E0,8.7860286E-2,-5.1636487E-2,3.2735206E-2],"split_indices":[13,19,23,6,19,3,22,0,0,0,0,0,0,0,0],"split_type":[0,0,0,0,0,0,0,0,0,0,0,0,0,0,0],"sum_hessian":[9.22E2,8.58E2,6.4E1,8.22E2,3.6E1,2.3E1,4.1E1,4.5E1,7.77E2,1.7E1,1.9E1,4E0,1.9E1,3.1E1,1E1],"tree_param":{"num_deleted":"0","num_feature":"24","num_nodes":"15","size_leaf_vector":"0"}},{"base_weights":[3.7631946E0,2.1605027E0,4.216009E0,2.6162355E0,-7.8345597E-1,4.2837806E0,-0E0,-0E0,3.2952433E0,-4.6384706E0,-0E0,4.7061276E0,3.0218863E0],"categories":[],"categories_nodes":[],"categories_segments":[],"categories_sizes":[],"default_left":[1,1,1,1,1,1,0,0,0,0,0,0,0],"id":84,"left_children":[1,3,5,7,9,11,-1,-1,-1,-1,-1,-1,-1],"loss_changes":[5.594912E2,3.422743E2,2.4362695E2,4.0703955E2,1.6722902E2,2.1396582E2,0E0,0E0,0E0,0E0,0E0,0E0,0E0],"parents":[2147483647,0,0,1,1,2,2,3,3,4,4,5,5],"right_children":[2,4,6,8,10,12,-1,-1,-1,-1,-1,-1,-1],"split_conditions":[2.7464575E-1,1.5328249E0,1.8539858E0,4.1674376E-1,1.7347186E0,5.475243E-1,-0E0,-0E0,9.88573E-2,-1.3915412E-1,-0E0,1.4118382E-1,9.0656586E-2],"split_indices":[22,18,13,6,18,18,0,0,0,0,0,0,0],"split_type":[0,0,0,0,0,0,0,0,0,0,0,0,0],"sum_hessian":[9.64E2,2.24E2,7.4E2,2E2,2.4E1,7.3E2,1E1,3.7E1,1.63E2,7E0,1.7E1,5.32E2,1.98E2],"tree_param":{"num_deleted":"0","num_feature":"24","num_nodes":"13","size_leaf_vector":"0"}},{"base_weights":[3.899469E0,1.7889245E0,4.3247137E0,4.9043083E0,6.062644E-1,4.411438E0,-0E0,6.1375117E0,-0E0,-1.0513581E0,1.3546063E0,4.56E0,6.0882306E-1,-3.305397E-1,-0E0],"categories":[],"categories_nodes":[],"categories_segments":[],"categories_sizes":[],"default_left":[1,1,1,1,1,1,1,0,0,0,0,0,0,1,1],"id":85,"left_children":[1,3,5,7,9,11,-1,-1,-1,-1,-1,-1,-1,-1,-1],"loss_changes":[7.1201465E2,5.061568E2,3.5401758E2,3.0141412E2,1.6760141E2,3.2377734E2,7.101672E-1,0E0,0E0,0E0,0E0,0E0,0E0,0E0,0E0],"parents":[2147483647,0,0,1,1,2,2,3,3,4,4,5,5,6,6],"right_children":[2,4,6,8,10,12,-1,-1,-1,-1,-1,-1,-1,-1,-1],"split_conditions":[6.3534904E-1,5.377792E-1,1.8539858E0,3.860863E-2,1.8198477E-1,2.1907868E0,-0E0,1.8412535E-1,-0E0,-3.1540744E-2,4.0638186E-2,1.3679999E-1,1.8264692E-2,-9.916191E-3,-0E0],"split_indices":[5,15,13,0,23,18,0,0,0,0,0,0,0,2147483647,2147483647],"split_type":[0,0,0,0,0,0,0,0,0,0,0,0,0,0,0],"sum_hessian":[9.41E2,1.67E2,7.74E2,4E1,1.27E2,7.62E2,1.2E1,3.3E1,7E0,3.1E1,9.6E1,7.28E2,3.4E1,5E0,7E0],"tree_param":{"num_deleted":"2","num_feature":"24","num_nodes":"15","size_leaf_vector":"0"}},{"base_weights":[3.5283163E0,2.4363852E0,4.366211E0,3.3443978E0,3.9219525E-1,4.451448E0,-0E0,3.8655195E0,-0E0,1.1857725E0,-2.244248E0,6.6022367E0,3.936568E0],"categories":[],"categories_nodes":[],"categories_segments":[],"categories_sizes":[],"default_left":[1,1,1,1,1,1,0,0,0,0,0,0,0],"id":86,"left_children":[1,3,5,7,9,11,-1,-1,-1,-1,-1,-1,-1],"loss_changes":[7.029873E2,7.019558E2,2.2967383E2,4.9737378E2,2.705027E2,3.133506E2,0E0,0E0,0E0,0E0,0E0,0E0,0E0],"parents":[2147483647,0,0,1,1,2,2,3,3,4,4,5,5],"right_children":[2,4,6,8,10,12,-1,-1,-1,-1,-1,-1,-1],"split_conditions":[9.1401696E-1,4.711487E-2,1.8739064E0,1.0693628E0,1.3957887E0,1.9027576E-1,-0E0,1.1596558E-1,-0E0,3.5573177E-2,-6.732743E-2,1.980671E-1,1.1809704E-1],"split_indices":[7,3,13,15,10,19,0,0,0,0,0,0,0],"split_type":[0,0,0,0,0,0,0,0,0,0,0,0,0],"sum_hessian":[9.33E2,4.18E2,5.15E2,2.82E2,1.36E2,5.07E2,8E0,2.44E2,3.8E1,1.11E2,2.5E1,8.7E1,4.2E2],"tree_param":{"num_deleted":"0","num_feature":"24","num_nodes":"13","size_leaf_vector":"0"}},{"base_weights":[3.6332383E0,1.3358058E0,3.8522782E0,2.2876313E0,-1.0810726E0,4.4291515E0,2.795091E0,9.335617E-2,4.184347E0,-1.9522996E0,-0E0,4.5017924E0,-0E0,-1.6781893E0,2.9810672E0],"categories":[],"categories_nodes":[],"categories_segments":[],"categories_sizes":[],"default_left":[1,1,1,1,1,1,1,0,0,0,0,0,0,0,0],"id":87,"left_children":[1,3,5,7,9,11,13,-1,-1,-1,-1,-1,-1,-1,-1],"loss_changes":[3.6985742E2,2.4293257E2,3.6417188E2,2.1976077E2,3.395041E1,2.5191602E2,3.0102515E2,0E0,0E0,0E0,0E0,0E0,0E0,0E0,0E0],"parents":[2147483647,0,0,1,1,2,2,3,3,4,4,5,5,6,6],"right_children":[2,4,6,8,10,12,14,-1,-1,-1,-1,-1,-1,-1,-1],"split_conditions":[2.3336008E-1,7.3793703E-1,3.6035135E-1,2.358247E-1,6.1429954E-1,3.8177314E0,3.7108573E-1,2.8006851E-3,1.255304E-1,-5.8568988E-2,-0E0,1.3505377E-1,-0E0,-5.0345678E-2,8.9432016E-2],"split_indices":[11,4,16,19,7,4,16,0,0,0,0,0,0,0,0],"split_type":[0,0,0,0,0,0,0,0,0,0,0,0,0,0,0],"sum_hessian":[9.55E2,9.2E1,8.63E2,7.2E1,2E1,5.43E2,3.2E2,3.9E1,3.3E1,1.4E1,6E0,5.38E2,5E0,8E0,3.12E2],"tree_param":{"num_deleted":"0","num_feature":"24","num_nodes":"15","size_leaf_vector":"0"}},{"base_weights":[3.5660338E0,2.3641245E0,4.232201E0,4.3083367E0,1.7719302E0,4.45902E0,-0E0,-0E0,4.954383E0,-5.0673145E-1,2.2728503E0,6.0893793E0,3.5678916E0,-9.978112E-1,3.0597875E0],"categories":[],"categories_nodes":[],"categories_segments":[],"categories_sizes":[],"default_left":[1,1,1,1,1,1,1,0,0,0,0,0,0,0,0],"id":88,"left_children":[1,3,5,7,9,11,13,-1,-1,-1,-1,-1,-1,-1,-1],"loss_changes":[5.948877E2,2.635841E2,4.9413867E2,2.0695337E2,3.5037177E2,5.740654E2,1.4042598E2,0E0,0E0,0E0,0E0,0E0,0E0,0E0,0E0],"parents":[2147483647,0,0,1,1,2,2,3,3,4,4,5,5,6,6],"right_children":[2,4,6,8,10,12,14,-1,-1,-1,-1,-1,-1,-1,-1],"split_conditions":[2.5924152E-1,4.3848893E-1,1.1685361E0,3.75077E-1,5.160445E-1,2.2998479E-1,2.1695714E0,-0E0,1.4863148E-1,-1.5201943E-2,6.818551E-2,1.8268138E-1,1.0703675E-1,-2.9934336E-2,9.179363E-2],"split_indices":[20,13,13,6,13,18,22,0,0,0,0,0,0,0,0],"split_type":[0,0,0,0,0,0,0,0,0,0,0,0,0,0,0],"sum_hessian":[9.25E2,3.43E2,5.82E2,7E1,2.73E2,5.49E2,3.3E1,9E0,6.1E1,4.2E1,2.31E2,1.83E2,3.66E2,2.2E1,1.1E1],"tree_param":{"num_deleted":"0","num_feature":"24","num_nodes":"15","size_leaf_vector":"0"}},{"base_weights":[3.2753425E0,9.8423165E-1,3.5673838E0,4.2068224E0,-0E0,-6.9257516E-1,3.6391401E0,-0E0,5.35721E0,7.032562E-1,-1.2952015E0,-1.6662087E0,-0E0,3.7602236E0,3.1263933E-1],"categories":[],"categories_nodes":[],"categories_segments":[],"categories_sizes":[],"default_left":[1,1,1,1,1,1,1,0,0,0,0,0,0,0,0],"id":89,"left_children":[1,3,5,7,9,11,13,-1,-1,-1,-1,-1,-1,-1,-1],"loss_changes":[5.410176E2,3.90551E2,3.184131E2,1.700683E2,8.631311E1,1.023295E1,2.5008301E2,0E0,0E0,0E0,0E0,0E0,0E0,0E0,0E0],"parents":[2147483647,0,0,1,1,2,2,3,3,4,4,5,5,6,6],"right_children":[2,4,6,8,10,12,14,-1,-1,-1,-1,-1,-1,-1,-1],"split_conditions":[2.6162392E-1,4.9028394E-1,3.8254246E-1,8.719E-2,2.3168719E-1,3.4352392E-1,2.6448004E0,-0E0,1.607163E-1,2.1097686E-2,-3.8856044E-2,-4.9986262E-2,-0E0,1.1280671E-1,9.379179E-3],"split_indices":[11,15,5,21,21,10,17,0,0,0,0,0,0,0,0],"split_type":[0,0,0,0,0,0,0,0,0,0,0,0,0,0,0],"sum_hessian":[9.51E2,1.16E2,8.35E2,2.7E1,8.9E1,9E0,8.26E2,5E0,2.2E1,5.6E1,3.3E1,4E0,5E0,7.91E2,3.5E1],"tree_param":{"num_deleted":"0","num_feature":"24","num_nodes":"15","size_leaf_vector":"0"}},{"base_weights":[3.1637344E0,1.2195946E0,3.505912E0,2.646418E0,-0E0,3.6941533E0,-6.391964E-2,-3.6877483E-1,3.633122E0,1.0018471E0,-1.933635E0,-0E0,3.7505622E0,-4.6436563E0,-0E0],"categories":[],"categories_nodes":[],"categories_segments":[],"categories_sizes":[],"default_left":[1,1,1,1,1,1,1,0,0,0,0,0,0,0,0],"id":90,"left_children":[1,3,5,7,9,11,13,-1,-1,-1,-1,-1,-1,-1,-1],"loss_changes":[5.3670996E2,2.5694022E2,6.142471E2,2.740663E2,1.6627992E2,2.1103516E2,9.688682E1,0E0,0E0,0E0,0E0,0E0,0E0,0E0,0E0],"parents":[2147483647,0,0,1,1,2,2,3,3,4,4,5,5,6,6],"right_children":[2,4,6,8,10,12,14,-1,-1,-1,-1,-1,-1,-1,-1],"split_conditions":[6.2888825E-1,3.7805068E-1,2.3342452E0,6.787108E-2,3.2073146E-1,1.6566282E-2,6.738522E-1,-1.1063245E-2,1.0899366E-1,3.0055413E-2,-5.8009047E-2,-0E0,1.12516865E-1,-1.3930969E-1,-0E0],"split_indices":[7,4,19,21,21,21,6,0,0,0,0,0,0,0,0],"split_type":[0,0,0,0,0,0,0,0,0,0,0,0,0,0,0],"sum_hessian":[9.57E2,1.53E2,8.04E2,6.8E1,8.5E1,7.69E2,3.5E1,1.2E1,5.6E1,5.8E1,2.7E1,8E0,7.61E2,3E0,3.2E1],"tree_param":{"num_deleted":"0","num_feature":"24","num_nodes":"15","size_leaf_vector":"0"}},{"base_weights":[2.8710904E0,2.0042114E0,3.785894E0,2.2712326E0,-1.2547059E0,3.971686E0,-0E0,1.7859201E0,4.3527675E0,-4.508266E0,4.023321E-1,4.078867E0,-0E0,-2.4849293E0,2.371362E0],"categories":[],"categories_nodes":[],"categories_segments":[],"categories_sizes":[],"default_left":[1,1,1,1,1,1,1,0,0,0,0,0,0,0,0],"id":91,"left_children":[1,3,5,7,9,11,13,-1,-1,-1,-1,-1,-1,-1,-1],"loss_changes":[6.297573E2,4.636206E2,2.563877E2,3.4288257E2,2.6544705E2,2.5155322E2,1.6324493E2,0E0,0E0,0E0,0E0,0E0,0E0,0E0,0E0],"parents":[2147483647,0,0,1,1,2,2,3,3,4,4,5,5,6,6],"right_children":[2,4,6,8,10,12,14,-1,-1,-1,-1,-1,-1,-1,-1],"split_conditions":[7.710079E-1,8.4076095E-1,1.1685361E0,5.16584E-1,6.613478E-1,1.9347267E0,1.8681602E0,5.3577602E-2,1.3058302E-1,-1.3524798E-1,1.2069963E-2,1.22366E-1,-0E0,-7.454788E-2,7.1140856E-2],"split_indices":[23,22,13,22,12,16,22,0,0,0,0,0,0,0,0],"split_type":[0,0,0,0,0,0,0,0,0,0,0,0,0,0,0],"sum_hessian":[9.53E2,5.03E2,4.5E2,4.71E2,3.2E1,4.25E2,2.5E1,3.92E2,7.9E1,1.4E1,1.8E1,4.18E2,7E0,9E0,1.6E1],"tree_param":{"num_deleted":"0","num_feature":"24","num_nodes":"15","size_leaf_vector":"0"}},{"base_weights":[3.0070605E0,3.1614618E0,-0E0,2.1679392E0,3.7036376E0,-8.691229E-1,2.0329297E0,5.164093E0,1.5924593E0,3.9089541E0,-0E0,-0E0,-2.9547513E0,3.3147542E0,-0E0],"categories":[],"categories_nodes":[],"categories_segments":[],"categories_sizes":[],"default_left":[1,1,1,1,1,1,1,0,0,0,0,